<?xml version="1.0"?>
<opencv_storage>
<opencv_ml_svm>
  <format>3</format>
  <svmType>C_SVC</svmType>
  <kernel>
    <type>LINEAR</type></kernel>
  <C>1.</C>
  <term_criteria><iterations>1000</iterations></term_criteria>
  <var_count>2700</var_count>
  <class_count>2</class_count>
  <class_labels type_id="opencv-matrix">
    <rows>2</rows>
    <cols>1</cols>
    <dt>i</dt>
    <data>
      -1 1</data></class_labels>
  <sv_total>1</sv_total>
  <support_vectors>
    <_>
      1.37837324e-05 9.97094048e-06 1.35391847e-05 8.71572956e-06
      7.61587580e-06 7.55787141e-06 -2.37811059e-06 -1.74295246e-06
      -3.15463421e-06 7.39150300e-06 7.01187673e-06 8.51943787e-06
      8.59102965e-06 6.41563884e-06 7.60051125e-06 1.39752819e-05
      1.19886481e-05 1.23268364e-05 1.18051212e-05 1.17493491e-05
      1.24244189e-05 3.82669714e-06 2.73060641e-06 3.65322558e-06
      2.96765876e-07 -3.50448630e-07 -1.07317658e-06 2.53501366e-06
      1.57758984e-06 -1.18937805e-06 4.58134900e-06 4.45045407e-06
      2.70222540e-06 9.27698693e-06 9.93425692e-06 6.47339994e-06
      1.21757857e-05 1.10373676e-05 9.16962199e-06 1.00449670e-05
      7.98740712e-06 6.93688207e-06 1.03003149e-05 6.96746747e-06
      5.91200751e-06 8.65519996e-06 5.54135886e-06 5.65431947e-06
      6.15437602e-06 4.32718980e-06 4.42848523e-06 1.09715565e-05
      5.12994438e-06 7.73676311e-06 7.76657816e-06 3.05577078e-06
      5.38914128e-06 3.62338187e-06 1.10258611e-06 2.90433991e-06
      5.49168590e-06 1.53300118e-06 4.69342740e-06 2.45646447e-06
      5.27949624e-07 2.51945062e-06 1.47835760e-06 -4.95905397e-07
      -2.27982628e-06 3.02628018e-06 9.23255527e-07 6.16971818e-07
      5.65504797e-06 1.36150891e-06 6.73619661e-06 5.60279113e-06
      1.93488836e-06 5.74010892e-06 5.45946932e-06 2.93025346e-06
      6.59266743e-06 -4.30228482e-07 4.93373193e-07 -7.16130899e-07
      -4.72919555e-06 -3.55528505e-06 -5.90431409e-06 9.69719963e-07
      -1.12287853e-06 -2.19420099e-06 1.25139295e-05 1.08936774e-05
      1.32580781e-05 3.51903554e-06 2.45669980e-06 4.98146164e-07
      4.07032894e-06 2.99316321e-06 3.12493648e-06 5.35326672e-06
      4.33428386e-06 6.63598257e-06 9.69544999e-06 9.98022369e-06
      8.13551560e-06 1.18870430e-05 1.16455958e-05 9.48895286e-06
      1.20612058e-05 1.09264674e-05 8.86053658e-06 5.66175186e-06
      4.65900075e-06 3.84491659e-06 3.13741043e-06 4.59184406e-07
      -1.85100384e-06 2.85709029e-06 6.75132753e-07 -2.57110082e-06
      3.14071508e-06 7.23539415e-07 -3.46860270e-06 6.78071456e-06
      2.09767609e-06 -1.42447504e-06 9.88518059e-06 5.84312511e-06
      3.84230452e-06 8.87327678e-06 8.69547603e-06 5.82600296e-06
      3.27892371e-06 3.51514541e-06 1.37517858e-07 5.55886663e-06
      4.60109823e-06 1.39222186e-06 2.83509416e-06 1.53127758e-06
      -6.92604488e-07 5.74162050e-06 2.79591177e-06 1.88267279e-06
      4.29241618e-06 3.76675507e-06 1.09453811e-06 4.63364859e-06
      3.41836221e-06 3.69676332e-06 3.51346125e-06 2.26791826e-06
      1.93148912e-06 8.02386876e-06 9.35454500e-06 1.14334116e-05
      1.20238315e-06 -6.82267455e-07 -3.71246699e-07 1.09181474e-06
      -3.40241013e-06 -6.79861614e-06 3.69079817e-06 2.78383050e-06
      1.64327560e-06 6.44818192e-06 6.25340545e-06 8.51239020e-06
      4.15533123e-06 3.17976514e-06 6.04386332e-06 4.05838669e-08
      -1.25507779e-06 1.02477145e-06 -2.52628092e-06 -5.84435475e-06
      -5.57694466e-06 3.01822251e-06 -5.57531121e-06 -7.87557212e-07
      1.18404650e-05 8.93568358e-06 1.10869751e-05 1.73377134e-06
      1.96774999e-06 1.25493489e-06 8.93467131e-06 8.58975909e-06
      9.82180882e-06 7.40000178e-06 8.32076330e-06 1.15212461e-05
      9.71424561e-06 1.01490768e-05 1.04241817e-05 1.04792489e-05
      1.11124309e-05 7.39362713e-06 6.24647009e-06 5.24787629e-06
      -1.61830542e-06 1.67006021e-06 4.11904637e-07 -3.58590773e-06
      4.43933368e-06 1.66308587e-06 -3.71632200e-06 -5.89000820e-07
      -7.31571163e-07 -3.66827953e-06 1.37741029e-06 -1.23348275e-06
      -4.09959284e-06 1.21955316e-06 -8.66753624e-07 -4.29892771e-06
      5.07637105e-06 3.79283438e-06 2.33668220e-06 7.18897536e-06
      7.14461567e-06 4.75197476e-06 -3.62651349e-07 -1.48361482e-06
      -5.25903579e-06 6.61076047e-06 5.28084593e-06 3.53888026e-06
      4.55712416e-06 2.02566844e-06 6.75044163e-08 -1.78694586e-06
      -2.86532986e-06 -4.44857051e-06 -1.35880100e-06 -1.39049678e-06
      -4.79175515e-06 3.88164744e-06 1.94640302e-06 -1.17645652e-06
      2.44370813e-06 2.93465405e-06 2.79374285e-06 9.27595465e-07
      2.15548289e-06 1.23833490e-06 4.63437163e-06 5.26252006e-06
      6.98811027e-06 -9.98565156e-07 -3.42549288e-06 -4.63572360e-06
      1.87515616e-06 5.99338307e-07 -2.37892777e-06 6.06821959e-06
      6.84897577e-06 9.80358072e-06 4.47930279e-06 5.82981284e-06
      8.95618086e-06 9.86480700e-06 1.19469078e-05 1.39206195e-05
      -5.04902118e-07 -3.70450152e-06 -2.04186790e-06 3.27458338e-06
      -4.40428357e-06 -6.78850824e-08 6.81700794e-06 4.18083209e-06
      5.16507043e-06 9.19969352e-06 9.02118336e-06 8.42374811e-06
      8.37370408e-06 8.90815772e-06 9.80865661e-06 9.37977802e-06
      9.27001111e-06 9.04496028e-06 1.43867892e-05 1.34773045e-05
      1.60760483e-05 7.67568326e-06 7.35219419e-06 4.36939035e-06
      -4.34750700e-06 -6.95931703e-06 -1.04660594e-05 -1.19601509e-06
      -4.32608249e-06 -8.97591235e-06 -2.36815026e-06 -3.48499543e-06
      -7.97417397e-06 3.40634347e-06 2.94809092e-06 -2.80058930e-06
      2.99389694e-06 3.28432020e-06 1.72371813e-06 -1.47273261e-06
      -1.29834132e-06 -2.64936784e-06 4.91132050e-06 2.47236176e-06
      1.68183271e-06 1.06288064e-06 1.38968664e-06 2.36245832e-08
      -4.41096063e-06 -2.21019241e-06 -7.03535943e-06 -4.49846948e-06
      -3.75283525e-06 -6.93861239e-06 6.94120536e-06 6.94101254e-06
      5.26897475e-06 1.25497479e-06 -1.67725389e-07 -9.72844646e-07
      -6.86637293e-07 -1.45759702e-06 -4.20646302e-06 -4.87388934e-06
      -5.73793250e-06 -9.26245139e-06 1.41658199e-06 1.08613733e-06
      -1.58901867e-06 -9.99059830e-06 -8.86671933e-06 -1.11916461e-05
      2.63818652e-06 3.42582393e-06 3.46653593e-07 -1.73249316e-06
      -3.56748637e-06 -4.20858214e-06 -1.57315344e-06 -2.33836136e-06
      -7.78524827e-06 3.87303135e-06 4.88389833e-06 4.61490799e-06
      5.69797339e-06 6.63723313e-06 1.10530364e-05 8.71961311e-06
      1.13350452e-05 1.36398321e-05 -1.79716767e-06 -2.20986522e-06
      -2.98525720e-07 1.79674339e-06 -5.56187933e-06 -2.62358810e-07
      3.62301921e-06 2.51839288e-06 1.50118569e-06 1.59235024e-05
      1.34032189e-05 1.45668137e-05 9.45142438e-06 7.97653865e-06
      8.52718495e-06 1.25939005e-05 9.90822900e-06 1.25893775e-05
      9.41900817e-06 8.28700558e-06 1.02205995e-05 8.25546249e-06
      6.05737387e-06 2.69055204e-06 3.99823602e-06 -3.62651633e-07
      -2.61686455e-06 -4.31354647e-06 -3.56962641e-06 -8.41633300e-06
      -1.92938319e-06 -4.29843976e-06 -5.17756916e-06 -4.52265431e-06
      -6.05801642e-06 -6.42372925e-06 8.15841304e-06 6.26293104e-06
      3.89636079e-06 2.89757941e-06 1.56586987e-06 1.57010697e-06
      1.62036508e-06 1.96555084e-06 3.05585604e-06 4.42025839e-06
      3.95500638e-06 1.76978813e-06 -8.15162366e-06 -7.69946291e-06
      -7.65069490e-06 2.98013856e-06 1.05829213e-06 -1.18682215e-06
      3.10026803e-06 2.94079837e-06 1.44212549e-06 6.91238438e-06
      4.68196868e-06 3.41649434e-06 3.92117090e-06 5.58290367e-06
      4.17034698e-06 1.55810358e-06 6.06701803e-07 -1.80671805e-06
      5.11166354e-06 4.16803323e-06 5.14187241e-06 4.91079163e-06
      4.26983433e-06 1.04767951e-05 -1.47090162e-07 -3.42787143e-06
      3.15709713e-07 1.62494678e-06 -4.22010601e-07 -7.53874190e-07
      -3.36323501e-06 -4.93601601e-06 -1.06217085e-05 5.79873313e-06
      4.22022413e-06 4.92646404e-06 8.18768240e-06 7.71266150e-06
      1.08062659e-05 6.20853552e-06 8.55479084e-06 1.27284802e-05
      1.03335117e-06 8.55411315e-07 3.22183610e-06 4.55124756e-08
      -6.44603142e-06 -8.89536750e-07 1.97358349e-06 2.54451243e-06
      1.60739773e-06 1.11367935e-05 1.05514537e-05 1.08763024e-05
      1.15800513e-05 1.03139464e-05 1.01586529e-05 8.82381482e-06
      8.34671755e-06 1.01874275e-05 8.02246996e-06 9.76481260e-06
      8.97405971e-06 6.66462802e-06 6.05540436e-06 3.93399114e-06
      2.90324556e-06 -4.41766417e-07 -3.19239734e-06 -2.01288094e-06
      -3.27940370e-06 -5.91080425e-06 4.14974784e-06 4.18146692e-06
      2.90304388e-06 1.83537884e-06 3.47637410e-06 2.84110411e-06
      4.29606916e-06 5.31722435e-06 4.92260097e-06 4.88974229e-06
      4.69292854e-06 3.13654527e-06 7.36678612e-06 7.50940490e-06
      4.36105074e-06 1.16359597e-05 1.02699169e-05 7.52499500e-06
      9.06601963e-06 8.61976969e-06 4.95726681e-06 9.91587422e-06
      8.56977204e-06 4.20348078e-06 1.32786363e-05 1.19165152e-05
      7.84608164e-06 1.17167792e-05 9.70564543e-06 6.27055715e-06
      1.31463703e-05 1.17369127e-05 9.18520527e-06 1.73696753e-05
      1.57214472e-05 1.55489361e-05 2.10677190e-05 2.04309472e-05
      2.17259058e-05 2.15828077e-05 2.43957820e-05 2.61200257e-05
      1.86669731e-05 1.97358004e-05 2.36562428e-05 1.00531533e-05
      1.15491112e-05 1.36759518e-05 3.90120522e-06 8.40183986e-07
      -5.94153335e-07 9.64044148e-07 5.73097232e-08 -3.78990535e-06
      5.43274427e-06 6.41686120e-06 1.03288885e-05 8.24183189e-06
      1.13283613e-05 1.47095898e-05 2.15616978e-07 8.62475247e-07
      3.24432585e-06 6.28778878e-07 -5.28029932e-06 9.42065924e-07
      6.09116432e-06 5.66269182e-06 4.92671279e-06 1.35329210e-05
      1.28656657e-05 1.24843009e-05 1.39670947e-05 1.46988132e-05
      1.34284546e-05 1.42503168e-05 1.44981313e-05 1.30724511e-05
      1.17739473e-05 1.11290956e-05 1.09159964e-05 5.83135625e-06
      4.24117707e-06 1.99665556e-06 6.85184068e-06 7.45330362e-06
      4.11479414e-06 6.43660633e-06 7.84471831e-06 4.63042170e-06
      1.82124986e-05 1.79946128e-05 1.81386440e-05 1.75840487e-05
      1.80729403e-05 1.83609136e-05 1.85619683e-05 1.75477307e-05
      1.76165795e-05 1.81018495e-05 1.66582613e-05 1.37011057e-05
      1.49092366e-05 1.42340823e-05 9.37253481e-06 1.56460683e-05
      1.46654029e-05 9.65631352e-06 1.37923735e-05 1.35822138e-05
      8.75885326e-06 1.46776301e-05 1.35784794e-05 9.30719580e-06
      1.65146448e-05 1.51974682e-05 1.05906420e-05 1.71145912e-05
      1.67080270e-05 1.32610667e-05 1.60876552e-05 1.50434089e-05
      1.40220609e-05 1.31885581e-05 9.11526513e-06 7.39655388e-06
      1.12984571e-05 9.52254231e-06 6.22248035e-06 9.59070803e-06
      9.63758248e-06 7.40616179e-06 1.65754755e-05 1.58427665e-05
      1.28464999e-05 1.42987028e-05 1.30460394e-05 1.15134008e-05
      1.01053311e-05 8.48524360e-06 6.43169778e-06 6.87465331e-07
      -4.51271802e-07 -5.70946668e-06 9.07721278e-06 1.00399311e-05
      1.48574245e-05 9.00159284e-06 1.09802004e-05 1.32167643e-05
      5.17219360e-06 5.38286349e-06 5.49716742e-06 -5.48323214e-07
      -6.34139906e-06 -3.67622135e-07 5.75574813e-06 4.29224929e-06
      3.80227675e-06 1.18351718e-05 1.23418267e-05 1.12244652e-05
      1.15994299e-05 1.20322075e-05 1.27901249e-05 1.46822786e-05
      1.64662742e-05 1.39651165e-05 9.77278251e-06 9.18862042e-06
      7.30178135e-06 8.28943303e-06 7.00069177e-06 5.50027335e-06
      2.49358482e-06 3.15453963e-06 1.62452761e-06 3.72481259e-06
      3.81584368e-06 2.21328855e-06 9.34544460e-06 9.26680059e-06
      7.67071833e-06 8.52878384e-06 9.42585757e-06 7.76214711e-06
      1.07022579e-05 1.05887866e-05 9.10405379e-06 1.76648718e-05
      1.61555636e-05 1.53182500e-05 1.52212187e-05 1.42671588e-05
      1.22895317e-05 1.27615303e-05 1.35141354e-05 9.22544314e-06
      1.27237417e-05 1.40943448e-05 9.30667102e-06 1.49477191e-05
      1.40359170e-05 9.71909594e-06 1.34551292e-05 1.27984194e-05
      1.01612932e-05 1.22989122e-05 1.15222347e-05 9.94148741e-06
      1.59129049e-05 1.56634069e-05 1.65649399e-05 1.60541676e-05
      1.66806785e-05 1.45396834e-05 1.02012300e-05 1.20938985e-05
      1.28667734e-05 9.39138499e-06 1.07509131e-05 1.01221140e-05
      9.13456097e-06 1.15027178e-05 8.59573174e-06 1.44000996e-05
      1.53910496e-05 1.20875820e-05 1.25349070e-05 1.14078002e-05
      7.60889225e-06 5.53570499e-06 3.09053416e-06 1.12346481e-06
      1.39836475e-05 1.61889111e-05 1.75759942e-05 8.82296263e-06
      1.10417877e-05 1.41363198e-05 5.31149271e-06 8.17551154e-06
      2.88313913e-06 4.92398087e-08 -7.31102318e-06 1.18278557e-07
      2.84724183e-06 1.96086648e-06 1.79704341e-06 9.40793143e-06
      9.88619558e-06 9.23105381e-06 1.41413020e-05 1.48497811e-05
      1.66145710e-05 1.71574884e-05 1.67174931e-05 1.67055241e-05
      7.18621186e-06 8.46941020e-06 6.16079205e-06 1.03994189e-05
      1.14158711e-05 8.06915978e-06 8.43802900e-06 8.46585681e-06
      4.57962187e-06 2.39460519e-06 1.44473938e-06 -2.97143310e-06
      9.07076128e-07 5.99122473e-07 -2.32036018e-06 3.58442685e-06
      3.46217848e-06 2.04477055e-06 1.26882205e-05 1.09263956e-05
      9.89510227e-06 1.37750985e-05 1.16550027e-05 1.19485112e-05
      1.18814705e-05 9.88355168e-06 9.40992504e-06 1.13925580e-05
      9.05914203e-06 6.59610487e-06 1.06283387e-05 1.20410950e-05
      7.51516518e-06 1.14573086e-05 1.09718012e-05 7.34220976e-06
      1.15675721e-05 1.09411285e-05 9.07086905e-06 1.60310610e-05
      1.71002703e-05 1.68425831e-05 1.42433828e-05 1.18770186e-05
      1.24932285e-05 1.02201811e-05 8.52024550e-06 4.89959302e-06
      4.55862937e-06 3.58414968e-06 1.37355164e-06 9.20578077e-06
      1.02333634e-05 8.97409063e-06 1.48095496e-05 1.39502763e-05
      1.17154223e-05 1.11013342e-05 1.19503984e-05 1.23455475e-05
      1.14830746e-05 9.33119281e-06 9.86683517e-06 7.95732103e-06
      7.13654526e-06 7.07154368e-06 4.50314155e-06 3.37680740e-06
      4.72809234e-06 7.40473661e-06 6.48144714e-06 8.39341556e-06
      4.88234355e-06 5.80098231e-06 7.84264614e-07 2.60164461e-06
      -3.97187387e-06 3.49359152e-06 6.10013558e-06 4.70082205e-06
      4.06309391e-06 1.29525497e-05 1.37694578e-05 1.36968647e-05
      1.35870669e-05 1.35965984e-05 1.44087044e-05 1.48688669e-05
      1.47675810e-05 1.54213703e-05 7.20249000e-06 7.94324023e-06
      5.64704624e-06 1.54176741e-05 1.57884770e-05 1.33891826e-05
      7.87655608e-06 7.11091434e-06 1.21932351e-06 5.73408124e-06
      2.71356316e-06 -2.69654402e-06 2.47154276e-06 1.61950959e-06
      -2.19216508e-06 1.50019298e-06 2.07515154e-06 5.80412916e-07
      7.42170778e-06 6.62647653e-06 4.97434348e-06 8.94377808e-06
      8.02420436e-06 6.94002665e-06 7.77767127e-06 6.96922280e-06
      8.59787906e-06 6.04963498e-06 4.38508459e-06 3.86097054e-06
      3.59254591e-06 2.59984745e-06 1.34807738e-06 4.35402490e-06
      4.58600744e-06 3.70530029e-06 1.17566951e-05 1.13456472e-05
      1.10644687e-05 1.10825413e-05 9.84854432e-06 1.05628642e-05
      4.13119960e-06 2.78917491e-06 3.25712654e-06 3.40563633e-06
      7.43023247e-06 7.26440021e-06 1.29441532e-05 1.35073587e-05
      1.70394505e-05 1.04604878e-05 1.45154509e-05 1.61561929e-05
      8.34160619e-06 1.25970864e-05 1.35100117e-05 5.34607170e-06
      5.07442201e-06 6.56897146e-06 7.84039275e-06 7.17053808e-06
      5.39034136e-06 1.16396741e-05 9.64103947e-06 9.21705941e-06
      7.32411581e-06 9.68789209e-06 1.31872011e-05 4.39115047e-06
      8.58226213e-06 1.16289275e-05 5.57062594e-06 3.41324085e-06
      1.75560513e-06 2.55642840e-06 -4.09760150e-06 5.10229665e-06
      1.65614119e-06 8.38904725e-07 2.94243705e-07 1.60423460e-05
      1.68694733e-05 1.43476518e-05 1.31613588e-05 1.45503282e-05
      1.43817851e-05 1.06196539e-05 1.04121573e-05 1.01132900e-05
      8.22905531e-06 5.86730312e-06 2.67862947e-06 1.12835705e-05
      1.05878826e-05 5.68743644e-06 8.83387020e-06 7.72195199e-06
      4.41045404e-06 1.25951874e-05 1.36077479e-05 1.11167165e-05
      1.03732764e-05 1.35041973e-05 1.58844487e-05 1.87897285e-06
      6.72752412e-06 1.14189506e-05 1.60304571e-05 1.51101913e-05
      1.66234422e-05 4.67846257e-06 5.88621197e-06 3.39944745e-06
      8.48794025e-06 6.68554412e-06 7.15740089e-06 1.57824570e-06
      1.55233568e-06 4.60069685e-07 -8.86941294e-08 1.45817197e-07
      -7.27501174e-07 4.36900382e-06 4.53968369e-06 3.58052466e-06
      1.13290498e-05 1.13974220e-05 9.33126830e-06 2.25980943e-06
      2.48579249e-06 2.65829362e-06 -2.03316881e-06 -2.79561561e-07
      -2.45024125e-06 -1.43421184e-05 -1.14560617e-05 -1.62682609e-05
      -7.91900948e-06 -9.76283536e-06 -1.25851029e-05 1.40181186e-07
      -1.75518323e-06 -2.91392507e-06 1.05724193e-05 8.51051664e-06
      7.66464382e-06 1.14395270e-05 1.24330045e-05 1.26683353e-05
      1.03513066e-05 9.78180287e-06 9.71092413e-06 8.99820316e-06
      1.00059706e-05 1.03067205e-05 9.67052347e-06 1.05819308e-05
      1.76497815e-05 -7.10370659e-06 -2.24549058e-06 6.55191207e-06
      1.89695209e-06 5.92274546e-06 7.09148071e-06 5.36104881e-06
      -2.37153972e-06 8.18208628e-06 -6.51364144e-06 -7.25226801e-06
      -7.57278895e-06 2.01282564e-05 2.07896246e-05 1.42414447e-05
      1.44550286e-05 1.45117474e-05 1.36643048e-05 6.24997347e-06
      6.95908102e-06 3.26238114e-06 9.52959181e-06 7.48031516e-06
      1.51189852e-06 1.03837092e-05 1.04980209e-05 3.99926739e-06
      1.37531679e-05 9.84442431e-06 8.55207963e-06 5.55064253e-06
      7.55256451e-06 4.65470885e-06 1.94445852e-06 2.03789727e-06
      -3.01055962e-07 1.10664778e-05 1.18175640e-05 1.00173856e-05
      2.63079937e-06 3.26282566e-06 2.97522979e-06 -5.88649254e-06
      -5.55241877e-06 -5.34256287e-06 5.47041145e-06 5.04922127e-06
      4.65359335e-06 5.29856663e-07 2.10033636e-06 2.42780061e-07
      5.38066888e-06 5.13259693e-06 3.26779809e-06 1.23511718e-05
      1.24488261e-05 1.13082333e-05 1.26175109e-05 1.38151345e-05
      9.96780182e-06 3.39655742e-07 2.09808013e-06 8.93049844e-07
      1.19207361e-05 1.37130210e-05 1.63178356e-05 2.94622305e-06
      4.74834133e-06 1.26512459e-05 6.11766427e-06 8.05211766e-06
      1.53463261e-05 7.65487948e-06 8.13880615e-06 9.37904042e-06
      6.21394202e-06 6.99061184e-06 9.53641484e-06 -7.80724076e-06
      -6.03868966e-06 -5.54775568e-08 -2.01338971e-05 -1.65838846e-05
      -6.54225141e-06 -1.40514421e-05 -9.10664494e-06 5.19481000e-06
      -4.39762925e-06 1.69256487e-06 1.60919426e-05 -4.65935130e-07
      1.22280812e-06 1.18833441e-05 -1.09389221e-05 -7.12542351e-06
      1.97981421e-06 2.79268761e-06 -4.38888992e-06 7.40090582e-06
      -1.32642181e-05 -1.41620894e-05 -1.44546830e-05 1.77393358e-05
      1.84107030e-05 1.05309218e-05 2.00539107e-05 1.98008620e-05
      1.73409608e-05 1.03361399e-05 1.06146181e-05 8.24803556e-06
      9.06600144e-06 8.69991163e-06 2.15371824e-06 8.03322928e-06
      6.88653563e-06 1.39766018e-06 2.86922500e-06 1.11686484e-06
      -1.93615597e-06 -3.05155851e-07 -2.84221414e-07 -1.04283538e-06
      -3.46635602e-06 -1.46624961e-06 -3.24168241e-06 2.65076233e-06
      3.42256021e-06 1.67451435e-06 -1.61371154e-05 -1.58134735e-05
      -1.39564136e-05 -3.26308236e-06 -4.39501582e-06 1.76563003e-06
      -1.20980203e-05 -9.77819036e-06 -3.68936253e-06 -1.13903270e-05
      -5.91417802e-06 1.68357815e-06 -5.46952197e-06 7.77136222e-07
      8.12451162e-06 -1.55529124e-05 -8.70932763e-06 4.17247793e-06
      -1.95174998e-05 -1.21769626e-05 3.21363882e-06 -2.03089330e-05
      -1.11839963e-05 -4.00117585e-07 -1.92372336e-05 -1.45919084e-05
      -2.87606849e-06 -1.87574424e-05 -1.81604428e-05 -4.50160996e-06
      -1.80698407e-05 -1.55654216e-05 -5.09838128e-06 -1.27050143e-05
      -1.10813871e-05 -1.48239758e-06 -1.30302433e-05 -1.04518231e-05
      -7.06357696e-07 -1.50241985e-05 -1.66196132e-05 -5.47496802e-06
      -1.99988808e-05 -1.76752092e-05 -5.46888123e-06 -1.55966882e-05
      -1.09859102e-05 2.49625373e-06 -7.33767183e-06 -2.66385337e-06
      1.10126794e-05 2.20303591e-05 2.52016780e-05 2.78331572e-05
      -1.08436170e-05 -9.24623055e-06 -5.16371983e-07 1.08008571e-05
      3.58311968e-06 1.39027497e-05 -1.24530334e-05 -1.25463284e-05
      -1.13600963e-05 1.83245356e-05 1.72068958e-05 8.43496400e-06
      2.14854590e-05 2.36171672e-05 1.97516492e-05 1.27339435e-05
      1.62257602e-05 1.50955557e-05 -8.24990366e-07 5.05921889e-07
      -1.79842505e-06 -3.65124470e-06 -1.17013678e-06 -8.72277838e-07
      -6.76443233e-06 -4.99193948e-06 -3.60720992e-06 -1.41882811e-05
      -1.14649647e-05 -5.23984363e-06 -1.67772178e-05 -1.37231964e-05
      -7.49904393e-06 -6.69555948e-06 -6.21545769e-06 1.55812904e-06
      -1.21503954e-05 -7.84772783e-06 1.83763962e-06 -2.71779118e-05
      -2.07401845e-05 -6.12995882e-06 -3.42433268e-05 -2.44482180e-05
      -7.19618629e-06 -5.46734882e-05 -4.34477442e-05 -1.62318229e-05
      -3.99077726e-05 -3.14727549e-05 -5.87947852e-06 -3.23471650e-05
      -2.45662050e-05 -1.23570896e-06 -4.74462540e-05 -3.66727872e-05
      -6.16784928e-06 -4.71588028e-05 -3.52226416e-05 -4.50594644e-06
      -3.66186796e-05 -2.77739036e-05 -2.99628186e-06 -2.37444601e-05
      -1.59966785e-05 3.49254992e-06 -2.26185512e-05 -1.67953240e-05
      -4.10701386e-06 -1.92703774e-05 -1.69583582e-05 -4.73422597e-06
      -2.44361745e-05 -1.96880974e-05 -9.80519690e-06 -2.00701252e-05
      -1.63878267e-05 -6.83339977e-06 -1.63531622e-05 -1.19036631e-05
      -1.56233386e-06 -1.36836006e-05 -7.63611843e-06 4.20642618e-06
      -7.26228654e-06 -1.01849025e-06 1.09793791e-05 5.66398785e-06
      8.54259179e-06 1.47651590e-05 -2.82791007e-06 -1.67528788e-06
      2.45309639e-06 1.44008964e-05 8.36148774e-06 1.66883638e-05
      -1.54062946e-05 -1.29897126e-05 -1.22414085e-05 1.45176446e-05
      1.31930947e-05 9.77244872e-06 1.38834939e-05 1.62789693e-05
      1.17572499e-05 3.20653135e-06 7.03391925e-06 1.22639321e-05
      -2.64949836e-06 -1.79519205e-07 3.10578139e-06 -1.65017282e-05
      -1.27431831e-05 -5.72613908e-06 -2.46547152e-05 -2.06596123e-05
      -1.08779941e-05 -1.64194353e-05 -1.24061980e-05 3.18667139e-06
      -1.98172493e-05 -1.42902691e-05 3.33097273e-06 -2.33398405e-05
      -1.67600738e-05 6.68616792e-07 -2.06990135e-05 -1.15400353e-05
      5.90783338e-06 -4.23212696e-05 -2.97766310e-05 -4.73027649e-06
      -5.72289246e-05 -4.45536170e-05 -1.39320528e-05 -5.39852444e-05
      -4.51393971e-05 -1.30394910e-05 -3.68328147e-05 -2.90920070e-05
      3.42489056e-06 -2.91985798e-05 -2.25346139e-05 4.25107964e-06
      -4.58828326e-05 -3.53405740e-05 -3.99045985e-06 -4.55645313e-05
      -3.39001745e-05 -5.71242936e-07 -3.12905104e-05 -2.13956391e-05
      1.01566766e-05 -3.53762734e-05 -2.66035768e-05 8.66669211e-07
      -3.63555591e-05 -2.90117314e-05 8.39977929e-07 -3.66876666e-05
      -2.80447875e-05 -7.08499329e-07 -3.36386875e-05 -2.50435387e-05
      1.62804213e-06 -2.90400567e-05 -2.00235245e-05 3.24693428e-06
      -1.61239896e-05 -8.28240809e-06 1.20991535e-05 -9.38698849e-06
      -3.88232593e-06 1.29048049e-05 -9.30617989e-06 -1.47366950e-06
      1.16343863e-05 1.34046713e-05 1.41360197e-05 1.64101002e-05
      7.46686464e-06 8.33273680e-06 9.31160048e-06 1.01723590e-05
      2.77014033e-06 1.16918363e-05 -1.08779614e-05 -6.28723819e-06
      -7.56961254e-06 -7.68844529e-06 -9.94586480e-06 -6.22881362e-06
      1.23084760e-06 4.43952649e-06 2.15800156e-07 4.12906502e-06
      6.77906792e-06 1.04576902e-05 -7.85825341e-06 -3.81032828e-06
      8.24407471e-06 -1.98687685e-05 -1.49953221e-05 -9.64708988e-07
      -2.17631477e-05 -1.63282330e-05 -3.94961808e-06 -1.83087195e-05
      -1.19654069e-05 5.32384729e-06 -7.71852592e-06 -1.71412250e-06
      1.70623243e-05 -3.16348232e-05 -2.02446408e-05 5.58683951e-06
      -3.70754315e-05 -2.52451955e-05 7.33637989e-06 -4.08464002e-05
      -2.86988270e-05 4.77025333e-06 -5.64330730e-05 -4.72661632e-05
      -1.08806516e-05 -5.16703367e-05 -4.27065497e-05 -7.71031591e-06
      -3.54975200e-05 -2.71351782e-05 6.61156082e-06 -3.42445710e-05
      -2.66383140e-05 1.09154671e-05 -4.36762930e-05 -3.57636418e-05
      4.33073183e-06 -4.74671615e-05 -3.52348397e-05 4.45343312e-06
      -4.18664094e-05 -2.85294100e-05 6.82079144e-06 -3.66676650e-05
      -2.54594233e-05 5.10801920e-06 -3.06550246e-05 -2.37597069e-05
      6.20276023e-06 -3.04218902e-05 -2.16789485e-05 8.56223051e-06
      -4.07786465e-05 -3.23913773e-05 -5.80398023e-07 -4.02567057e-05
      -3.11646872e-05 -1.78756181e-07 -3.15820471e-05 -2.23655879e-05
      7.00853252e-06 -3.09714669e-05 -2.08748843e-05 3.56880014e-06
      -1.16042620e-05 -4.38835650e-06 8.93698598e-06 9.74350769e-06
      1.00340594e-05 1.36869612e-05 7.10508857e-06 6.90650222e-06
      9.24209053e-06 1.34996735e-05 5.80257893e-06 1.38166452e-05
      -3.05314211e-06 1.79977326e-06 -1.94515951e-06 6.65723428e-06
      5.54503413e-06 6.87942520e-06 -3.93119399e-06 -4.65409539e-06
      -1.41292287e-06 2.36784945e-05 2.66483748e-05 2.46165291e-05
      -1.09455104e-05 -5.91452135e-06 6.71747466e-06 -1.40769453e-05
      -8.32571459e-06 8.24352992e-06 -2.44855873e-05 -1.62174110e-05
      3.98866132e-06 -2.75457260e-05 -1.88311642e-05 1.24680219e-05
      -2.28862045e-05 -1.11810014e-05 1.98524885e-05 -1.65692982e-05
      -7.27439556e-06 2.48538981e-05 -1.86184989e-05 -8.22626771e-06
      2.55393225e-05 -4.28585372e-05 -3.12230004e-05 4.41243492e-06
      -4.45037658e-05 -3.52931638e-05 2.20217089e-06 -4.95562235e-05
      -4.25623221e-05 -3.51945823e-06 -3.67119210e-05 -3.11608310e-05
      4.17137471e-06 -2.84621547e-05 -2.43653412e-05 1.13865035e-05
      -3.85051098e-05 -3.31933006e-05 5.76032198e-06 -4.80906019e-05
      -3.83224433e-05 1.76330661e-06 -4.77151189e-05 -3.60702215e-05
      4.18647505e-06 -3.45602675e-05 -2.51572346e-05 1.28568472e-05
      -2.16837980e-05 -1.30182707e-05 2.19466638e-05 -2.87455914e-05
      -2.01686635e-05 1.26164223e-05 -3.59969126e-05 -2.77630443e-05
      3.93460778e-06 -3.62777428e-05 -2.80466102e-05 6.37522999e-06
      -3.05320500e-05 -2.22263807e-05 9.76291267e-06 -3.64160951e-05
      -2.83574209e-05 -1.67493840e-06 -1.42475101e-05 -9.42067345e-06
      6.31064449e-06 -7.62726495e-06 -3.03527872e-06 5.18360412e-06
      1.11492750e-06 1.35876633e-06 6.62295861e-06 8.54398786e-06
      2.08657275e-06 1.15309640e-05 -2.63357947e-06 2.70425949e-06
      -2.82399583e-06 1.15758503e-05 1.03536195e-05 1.02239255e-05
      -1.19944671e-05 -1.29303680e-05 -9.68313088e-06 1.49551142e-05
      1.46823404e-05 1.74030974e-05 -1.78745813e-05 -1.13372898e-05
      2.63294487e-06 -1.88036156e-05 -1.07789465e-05 1.62070100e-05
      -3.21514708e-05 -2.02339015e-05 1.12650105e-05 -3.67387875e-05
      -2.69789834e-05 6.72057058e-06 -2.06812092e-05 -1.15056891e-05
      2.37896020e-05 -1.87293081e-05 -1.01756286e-05 2.36184242e-05
      -2.39317869e-05 -1.33269041e-05 2.18779405e-05 -3.93146620e-05
      -2.82381261e-05 9.34557738e-06 -4.67434402e-05 -3.71563583e-05
      4.18896843e-06 -3.85179992e-05 -3.24009379e-05 6.20520268e-06
      -2.79993310e-05 -2.25185067e-05 1.15883931e-05 -2.27449509e-05
      -1.94167824e-05 1.46891025e-05 -3.46977504e-05 -3.06617076e-05
      6.44810825e-06 -4.58436698e-05 -3.99411292e-05 -9.82756703e-08
      -4.80158051e-05 -3.91913309e-05 1.65497750e-06 -4.24354694e-05
      -3.24268731e-05 8.85311965e-06 -3.44154541e-05 -2.78928674e-05
      1.27040948e-05 -3.40311817e-05 -2.63175625e-05 1.03108114e-05
      -3.24368484e-05 -2.32243328e-05 1.21815465e-05 -3.26419722e-05
      -2.29310626e-05 1.13232663e-05 -3.21570406e-05 -2.38469074e-05
      8.11342034e-06 -3.24172106e-05 -2.53690396e-05 -2.99205158e-06
      -1.80356346e-05 -1.37938232e-05 4.11364545e-06 -1.97347654e-05
      -1.50012711e-05 -6.15321198e-07 9.93921276e-07 1.29845705e-06
      5.75088097e-06 1.18874668e-05 4.58515024e-06 1.33898411e-05
      1.82116901e-06 8.21560843e-06 1.46529669e-06 1.32045088e-05
      1.17671880e-05 1.16534757e-05 1.04899073e-05 8.06540356e-06
      1.01940668e-05 9.60362195e-06 9.07194226e-06 1.29193086e-05
      5.74501337e-06 9.44502062e-06 2.16037170e-05 -3.11658187e-05
      -2.18440255e-05 3.70093562e-06 -3.28119786e-05 -2.22554227e-05
      8.32515070e-06 -4.29742649e-05 -3.05924586e-05 6.34836579e-06
      -2.79295145e-05 -1.64969406e-05 2.01204439e-05 -1.58984658e-05
      -6.73071918e-06 3.00682823e-05 -2.84921862e-05 -1.93467822e-05
      1.89979855e-05 -4.36039518e-05 -3.40584484e-05 8.96316487e-06
      -3.77361866e-05 -2.86889481e-05 1.19610622e-05 -4.33050445e-05
      -3.46456509e-05 5.59809178e-06 -4.16162256e-05 -3.36757294e-05
      7.83602900e-06 -3.73485673e-05 -3.05679387e-05 9.43871055e-06
      -4.50323823e-05 -3.80105557e-05 1.03431887e-06 -5.31702281e-05
      -4.61278505e-05 -5.43880969e-06 -4.89505910e-05 -3.97830045e-05
      2.67304790e-06 -3.94802992e-05 -3.19725368e-05 8.11748578e-06
      -2.78346251e-05 -2.05721790e-05 1.69993818e-05 -2.53857779e-05
      -1.64344037e-05 2.07916364e-05 -2.06378882e-05 -1.12282214e-05
      2.56031180e-05 -1.81941741e-05 -7.67006532e-06 2.67380710e-05
      -1.16440042e-05 -5.03366527e-06 2.38407392e-05 -1.16399924e-05
      -5.14905923e-06 1.26338737e-05 -1.83304219e-05 -1.42915505e-05
      2.99086287e-06 -1.86842863e-05 -1.51358890e-05 -3.93583264e-07
      -9.35420132e-07 -3.43932243e-07 8.27969961e-06 1.05779245e-05
      6.45439604e-06 1.24206517e-05 1.22529127e-06 7.85071916e-06
      1.20464824e-06 7.51169182e-06 6.93797620e-06 6.94418031e-06
      6.27391728e-06 5.06218566e-06 5.91962453e-06 -2.72691295e-06
      -2.67625319e-06 1.31860395e-06 -1.04764895e-05 -6.20745504e-06
      6.47926072e-06 -1.36618773e-05 -7.36367701e-06 1.45097210e-05
      -2.65565031e-05 -1.77397160e-05 1.36743229e-05 -2.43702434e-05
      -1.40882921e-05 2.25073236e-05 -2.56722797e-05 -1.39360582e-05
      2.61062705e-05 -2.15957934e-05 -1.22533957e-05 2.83100781e-05
      -2.59367916e-05 -1.61218486e-05 2.21864066e-05 -4.64256482e-05
      -3.79525809e-05 3.52713164e-06 -5.91057760e-05 -5.07751029e-05
      -7.75806438e-06 -7.52462947e-05 -6.82220780e-05 -2.53290418e-05
      -6.91947207e-05 -6.22358421e-05 -2.05702181e-05 -5.82763387e-05
      -5.14700041e-05 -1.16153906e-05 -4.70152954e-05 -3.97431832e-05
      -2.91400215e-06 -5.86270216e-05 -5.37963315e-05 -1.67781309e-05
      -4.51372252e-05 -3.90801979e-05 1.15881301e-06 -2.16562512e-05
      -1.56948336e-05 2.11353472e-05 -1.89873099e-05 -1.18126436e-05
      2.39577421e-05 -2.10497765e-05 -1.27743933e-05 2.42471906e-05
      -2.70423025e-05 -1.79643321e-05 1.72579312e-05 -3.42611420e-05
      -2.51108831e-05 1.05214431e-05 -3.00506581e-05 -1.89549155e-05
      8.18563785e-06 -1.59328538e-05 -9.66996868e-06 7.80123992e-06
      -1.60445597e-05 -1.03601978e-05 4.99834641e-06 -1.67049329e-05
      -1.26324103e-05 7.17322166e-07 -3.44086880e-06 1.32588559e-06
      9.68637141e-06 8.20934110e-06 3.75474860e-06 1.03111715e-05
      1.23271536e-06 8.25999450e-06 1.26446480e-06 9.41307098e-06
      8.97261361e-06 8.70298300e-06 8.81703363e-06 8.62054367e-06
      8.12329563e-06 -2.66515576e-06 -2.81510052e-06 7.54140217e-07
      -1.30369208e-05 -8.01674923e-06 5.20142339e-06 -1.86639045e-05
      -1.50733968e-05 8.72584951e-06 -2.12788691e-05 -1.28917309e-05
      1.48081708e-05 -2.84167854e-05 -1.87948517e-05 1.81814266e-05
      -1.94082131e-05 -7.03779733e-06 3.36564917e-05 -2.10729922e-05
      -9.45546890e-06 3.18760758e-05 -2.09347509e-05 -9.78371099e-06
      3.16689984e-05 -4.84296143e-05 -3.71690694e-05 6.36009781e-06
      -7.81923518e-05 -6.88478176e-05 -2.38745142e-05 -8.41275323e-05
      -7.50145264e-05 -3.47882597e-05 -7.49628307e-05 -6.75928532e-05
      -2.78971875e-05 -5.96029859e-05 -5.17761764e-05 -1.56073165e-05
      -5.98112129e-05 -5.14313397e-05 -1.46224775e-05 -5.35247163e-05
      -4.60772717e-05 -8.86870112e-06 -3.13086784e-05 -2.57059837e-05
      1.18792996e-05 -3.22449637e-06 2.40446730e-06 3.82495891e-05
      -1.18880407e-05 -2.92482696e-06 3.22871092e-05 -2.78426487e-05
      -1.84285691e-05 1.88042559e-05 -4.24151185e-05 -3.20488834e-05
      6.63479841e-06 -4.22981429e-05 -3.02971239e-05 4.81489087e-06
      -4.77700160e-05 -3.57432655e-05 -4.60478213e-06 -2.34507461e-05
      -1.46811217e-05 3.20591130e-06 -2.42706534e-07 4.25217922e-06
      1.60434556e-05 -1.94682366e-06 2.28758790e-06 1.27696776e-05
      -1.91926574e-07 2.42797273e-06 8.94653658e-06 7.26367807e-06
      2.63985589e-06 1.01333453e-05 1.30848275e-06 7.67920665e-06
      1.28736099e-06 9.07222511e-06 8.68220832e-06 8.53110578e-06
      1.14085224e-05 1.01655714e-05 9.80734967e-06 2.97496103e-06
      2.33246601e-06 3.25427959e-06 -5.85827092e-06 -6.62615719e-07
      8.70718213e-06 -2.69983448e-05 -1.94942841e-05 1.33343531e-06
      -1.24254784e-05 -4.08316646e-06 1.97791869e-05 -3.35040240e-05
      -2.33005685e-05 1.01829919e-05 -4.47640778e-05 -3.24442553e-05
      6.68591656e-06 -4.18865093e-05 -2.81354023e-05 1.02774411e-05
      -4.40655531e-05 -3.33463904e-05 1.05315257e-05 -5.10194659e-05
      -4.01779653e-05 3.21452330e-06 -5.60689114e-05 -4.57027672e-05
      -3.88671560e-06 -4.08603992e-05 -3.17375270e-05 2.41251678e-06
      -4.42084747e-05 -3.53378055e-05 -1.26525788e-06 -4.43446297e-05
      -3.56051314e-05 -1.11222118e-06 -4.57055030e-05 -3.65040833e-05
      4.56246084e-07 -4.44797515e-05 -3.74770643e-05 -1.11101528e-08
      -2.74237518e-05 -2.09872233e-05 1.52234506e-05 -3.15538600e-05
      -2.56957774e-05 1.12724083e-05 -4.10740649e-05 -3.21268199e-05
      4.28371959e-06 -4.53868161e-05 -3.50393493e-05 2.35303787e-06
      -4.40496042e-05 -3.27432426e-05 1.41910505e-06 -4.02602454e-05
      -2.84596863e-05 4.68421149e-06 -3.61217863e-05 -2.40121335e-05
      7.32868602e-06 -1.15243583e-05 -5.51088442e-06 1.14264003e-05
      -8.56082988e-06 -4.07884318e-06 9.19055765e-06 -4.69271299e-06
      -1.79348987e-07 1.02972481e-05 3.19525157e-06 2.95400719e-06
      7.43680084e-06 8.98128110e-06 4.13657699e-06 9.55017094e-06
      1.19898891e-06 7.57163980e-06 1.08076995e-06 8.83210305e-06
      8.71210341e-06 8.74115267e-06 1.13245187e-05 1.03695320e-05
      1.00966263e-05 7.84015538e-06 6.80127687e-06 6.77934213e-06
      -1.10399230e-06 1.69857287e-06 1.19900897e-05 -2.13934891e-05
      -1.40604661e-05 3.26306872e-06 -3.37977363e-05 -2.79530432e-05
      -4.03248441e-06 -6.09580384e-05 -5.07452060e-05 -1.34060620e-05
      -4.82325304e-05 -3.63903855e-05 9.15238559e-07 -4.60974734e-05
      -3.60461090e-05 2.56398107e-06 -3.84012710e-05 -2.71394765e-05
      1.10690908e-05 -2.92444602e-05 -1.85193294e-05 1.96952406e-05
      -3.35038640e-05 -2.51876099e-05 1.28951988e-05 -3.04621008e-05
      -2.52461468e-05 1.37229672e-05 -3.19208484e-05 -2.69289394e-05
      1.23186392e-05 -3.18727580e-05 -2.56086314e-05 1.60276231e-05
      -3.44192231e-05 -2.83438076e-05 1.01051310e-05 -4.00538593e-05
      -3.25020301e-05 4.07806192e-06 -4.47041602e-05 -3.72019058e-05
      3.17010085e-06 -5.38420609e-05 -4.59703188e-05 -5.82462280e-06
      -5.51131088e-05 -4.60004558e-05 -7.95957658e-06 -6.08287010e-05
      -5.03721312e-05 -1.21470102e-05 -4.97673464e-05 -3.83668812e-05
      -3.09049256e-06 -3.68572473e-05 -2.58215041e-05 5.91768367e-06
      -4.23735873e-05 -3.17420127e-05 -1.29299383e-06 -2.10878788e-05
      -1.55264806e-05 2.15813179e-06 -1.54407608e-05 -1.10773199e-05
      3.18158368e-06 -2.90429011e-06 5.05517676e-07 7.95834239e-06
      5.18427487e-06 5.36303196e-06 7.97218854e-06 8.44271290e-06
      1.99885881e-06 9.22327854e-06 1.46942216e-06 7.92613537e-06
      1.30344870e-06 8.19469005e-06 8.25026927e-06 8.10457732e-06
      1.27903977e-05 1.13167480e-05 1.10846040e-05 1.13830092e-05
      1.06148782e-05 1.06077887e-05 -7.45662601e-06 -5.43880424e-06
      4.08915867e-06 -1.37192756e-05 -6.44123838e-06 9.08045695e-06
      -1.09570747e-05 -4.45489104e-06 1.33508920e-05 -3.88317203e-05
      -2.89617310e-05 -2.06654386e-06 -3.68338297e-05 -2.57852407e-05
      7.99382451e-06 -4.14755086e-05 -3.21074549e-05 2.38865709e-06
      -5.21361471e-05 -4.34855247e-05 -8.02463910e-06 -6.20994178e-05
      -5.78469335e-05 -1.94698769e-05 -6.08620176e-05 -5.69540607e-05
      -1.20785344e-05 -5.79162843e-05 -5.26662261e-05 -7.72393378e-06
      -5.60017506e-05 -5.25131836e-05 -4.12465306e-06 -6.03407752e-05
      -5.85817397e-05 -8.20063087e-06 -6.16530961e-05 -5.97338840e-05
      -1.27449293e-05 -6.82758327e-05 -6.63492756e-05 -2.01365710e-05
      -5.53496720e-05 -5.45360526e-05 -1.21242656e-05 -5.08218509e-05
      -4.18637392e-05 -4.47088814e-06 -3.71871247e-05 -2.74159702e-05
      8.02687282e-06 -2.63995280e-05 -1.68278621e-05 1.69968935e-05
      -2.43906561e-05 -1.28944466e-05 1.69730465e-05 -3.08629715e-05
      -1.90933679e-05 9.66873267e-06 -3.88042972e-05 -2.91244396e-05
      -4.00287036e-07 -2.47409971e-05 -1.64156354e-05 -4.69056459e-07
      -1.96115980e-05 -1.46079446e-05 -5.82824953e-07 -4.07371090e-06
      -1.60006584e-06 3.83111956e-06 6.73281602e-06 5.96296968e-06
      7.45230227e-06 8.25416919e-06 2.13447788e-06 9.51078619e-06
      1.10623557e-06 7.37178152e-06 1.04231719e-06 1.00448633e-05
      9.34199034e-06 9.29070302e-06 1.18667595e-05 1.07059286e-05
      1.05761701e-05 1.31884926e-05 1.13893357e-05 1.08569602e-05
      3.89444978e-07 2.37097629e-06 7.11213715e-06 -2.49075802e-05
      -1.88508147e-05 -8.85752399e-07 -2.28723547e-05 -1.73721146e-05
      3.06516608e-06 -3.47000605e-05 -2.84520684e-05 -6.46584886e-06
      -2.40995123e-05 -1.64832527e-05 1.09919119e-05 -1.78078590e-05
      -8.73425233e-06 2.11130719e-05 -4.40283548e-05 -3.54068725e-05
      -6.23038716e-07 -4.78713919e-05 -4.22142839e-05 -7.42351801e-07
      -4.96762332e-05 -4.95173408e-05 -4.67898371e-06 -5.54889193e-05
      -5.75245140e-05 -1.50910037e-05 -4.13870039e-05 -4.25044018e-05
      2.22402832e-06 -3.08277049e-05 -3.32696145e-05 1.15390803e-05
      -2.59109256e-05 -2.99828225e-05 1.31813213e-05 -4.23139936e-05
      -4.56522539e-05 -2.22484027e-06 -4.08634951e-05 -4.11598303e-05
      -4.09770138e-08 -3.71755850e-05 -3.33013595e-05 3.60229160e-06
      -2.98807536e-05 -2.36533906e-05 8.29957753e-06 -3.04023124e-05
      -2.05964370e-05 1.04364008e-05 -2.63621459e-05 -1.57003597e-05
      1.35519895e-05 -3.00315969e-05 -1.71435586e-05 1.01376090e-05
      -3.09030656e-05 -2.25938220e-05 3.73466150e-07 -2.15625350e-05
      -1.83053216e-05 -2.64556320e-06 -5.27381644e-06 -2.58968794e-06
      6.95546487e-06 -4.37809558e-06 -1.90025435e-06 2.35980542e-06
      4.06128629e-06 4.13940916e-06 5.83815245e-06 6.85703571e-06
      1.02484978e-06 7.65486766e-06 1.45400850e-06 8.28342763e-06
      1.37316488e-06 1.03347847e-05 9.25184941e-06 9.25363929e-06
      1.17853097e-05 1.01482401e-05 9.73964961e-06 1.27341855e-05
      1.12106263e-05 1.08826525e-05 1.50505102e-05 1.39617559e-05
      1.43440748e-05 -8.72524288e-06 -6.27112695e-06 3.69474992e-06
      -3.20825820e-05 -2.62787835e-05 -8.22810125e-06 -3.69941190e-05
      -3.12324009e-05 -9.81537869e-06 -4.02843616e-05 -3.25594956e-05
      -5.45766079e-06 -3.02550470e-05 -2.09967984e-05 1.06794196e-05
      -3.83115475e-05 -2.91703018e-05 4.46215017e-06 -3.25548535e-05
      -2.39029287e-05 1.09269686e-05 -2.94354886e-05 -2.27175442e-05
      1.47109586e-05 -3.57853205e-05 -3.25600631e-05 9.04716489e-06
      -4.46691229e-05 -4.42598503e-05 3.08449671e-06 -3.63482031e-05
      -3.76981552e-05 1.27187386e-05 -3.10077012e-05 -3.00306092e-05
      1.42632180e-05 -2.55828618e-05 -2.36677279e-05 1.86806010e-05
      -4.11720757e-05 -3.76194512e-05 3.13156693e-06 -4.01097132e-05
      -3.12621632e-05 5.21437460e-06 -4.47594284e-05 -3.55154443e-05
      -1.02155434e-06 -4.32593151e-05 -3.24580396e-05 1.34298125e-06
      -3.07757473e-05 -1.90762803e-05 9.64647097e-06 -3.73019138e-05
      -2.98497125e-05 -4.96221855e-06 -2.67549403e-05 -2.16126627e-05
      -2.83569193e-06 -6.22894186e-06 7.09313568e-08 1.24029375e-05
      -3.71290093e-06 -2.03114496e-06 6.12428448e-06 -3.19667294e-07
      1.37102847e-06 4.11723204e-06 5.34587844e-06 4.90161301e-06
      7.76467914e-06 8.05572017e-06 2.56405701e-06 8.21923823e-06
      1.31005311e-06 7.99091413e-06 1.02802028e-06 9.40197333e-06
      9.35559183e-06 9.57099019e-06 1.15660723e-05 1.06599964e-05
      1.00744219e-05 1.26654340e-05 1.09048788e-05 1.00211810e-05
      2.23951301e-05 2.12473315e-05 2.03152558e-05 6.15880526e-06
      6.21904837e-06 9.05493653e-06 -9.48087018e-06 -7.53797758e-06
      5.57694420e-06 -2.48285578e-05 -2.02980227e-05 -2.96212124e-06
      -5.71320779e-05 -4.99025991e-05 -2.46294494e-05 -3.91278445e-05
      -3.18673665e-05 -2.39547967e-06 -3.05966678e-05 -2.05125561e-05
      7.62574064e-06 -3.27176276e-05 -2.51467864e-05 4.82349014e-06
      -2.48850265e-05 -1.93325832e-05 9.50570939e-06 -3.43238680e-05
      -3.08929993e-05 1.25060637e-06 -3.42540516e-05 -3.06912079e-05
      6.43901501e-07 -3.27458292e-05 -2.77517574e-05 5.99698342e-06
      -3.64806365e-05 -3.16378973e-05 3.50921141e-06 -3.31193296e-05
      -2.64644095e-05 8.07067318e-06 -3.42806488e-05 -2.63738330e-05
      8.61034550e-06 -4.38119605e-05 -3.48917929e-05 1.54931627e-07
      -4.56917005e-05 -3.46805937e-05 -6.20826597e-07 -4.17782576e-05
      -2.98613213e-05 2.68230423e-07 -2.77029139e-05 -1.91629988e-05
      9.64821356e-06 -2.74072809e-05 -2.07349167e-05 1.56883232e-06
      -9.54585994e-06 -4.76604555e-06 9.08267975e-06 -5.90236550e-06
      -3.98167595e-06 7.07974004e-06 -2.53796202e-06 -3.90363266e-06
      2.25430881e-06 -8.79533582e-06 -1.04067312e-05 -9.29100770e-06
      -1.40639349e-06 -7.14358885e-06 -4.07107700e-06 3.85935937e-06
      -4.79591063e-06 -3.23915060e-07 1.75112893e-06 7.29359681e-06
      1.33788171e-06 9.19722333e-06 8.98225971e-06 8.57532450e-06
      1.17334084e-05 1.13477154e-05 1.09595394e-05 1.29190530e-05
      1.22571882e-05 1.13054039e-05 1.25099109e-06 3.49326513e-07
      -9.78336203e-08 5.62228342e-06 4.92773415e-06 5.09358915e-06
      3.10549985e-05 3.20587933e-05 3.64892148e-05 1.12426296e-05
      1.66025075e-05 2.67884043e-05 -1.00404195e-05 -4.92499976e-06
      1.17765021e-05 -3.13474520e-05 -2.23270163e-05 -7.14460668e-07
      -4.69067272e-05 -3.91518406e-05 -9.43738269e-06 -4.46117992e-05
      -3.61062521e-05 -5.10579639e-06 -3.34244614e-05 -2.54147508e-05
      5.04659738e-06 -3.37648344e-05 -2.62809335e-05 3.66681138e-06
      -3.26671579e-05 -2.53162816e-05 4.86455838e-06 -3.72960603e-05
      -3.14989120e-05 1.80828977e-06 -3.31850606e-05 -2.50426019e-05
      6.00704243e-06 -3.29120521e-05 -2.48680135e-05 8.57198211e-06
      -3.29447976e-05 -2.49521963e-05 7.98850851e-06 -4.21383666e-05
      -3.28798924e-05 2.58539899e-07 -2.59765020e-05 -1.39611102e-05
      1.40516286e-05 -2.37372606e-05 -1.36285908e-05 1.27193980e-05
      -2.89341824e-05 -2.19765807e-05 1.89500361e-06 -2.13306994e-05
      -1.68137449e-05 -1.02856427e-06 -5.06880997e-06 -3.80997631e-06
      5.89968386e-06 -1.94993445e-05 -2.06578861e-05 -1.31853703e-05
      -3.78457253e-06 -4.78017182e-06 -2.24078372e-06 -1.61544358e-05
      -1.57042650e-05 -1.39244539e-05 -9.06545120e-06 -1.16716701e-05
      -1.14805143e-05 -2.28216595e-06 -1.10897108e-05 -6.45166165e-06
      2.12959776e-06 7.81640847e-06 1.57111526e-06 9.63448747e-06
      9.50094727e-06 8.35160336e-06 1.11409636e-05 1.05235886e-05
      9.41482358e-06 3.02474400e-05 2.77949730e-05 2.71448334e-05
      3.71380556e-05 3.67582470e-05 3.61131424e-05 2.77764884e-05
      2.52964364e-05 2.51122219e-05 1.61745556e-05 1.46747725e-05
      1.46598968e-05 1.38445666e-05 1.69443920e-05 2.08842193e-05
      -2.42771011e-06 2.84975863e-06 1.54391037e-05 -3.15684774e-05
      -2.60969373e-05 -1.08724180e-05 -3.18087150e-05 -2.57487482e-05
      -4.67288692e-06 -2.95293103e-05 -1.79264680e-05 8.72864075e-06
      -3.66235181e-05 -2.66645075e-05 3.71854776e-06 -3.87280124e-05
      -2.97049628e-05 1.41089765e-06 -3.38209065e-05 -2.64427545e-05
      4.20969945e-06 -2.22699800e-05 -1.53299807e-05 1.35046912e-05
      -2.33548453e-05 -1.61981534e-05 1.40086931e-05 -2.21032678e-05
      -1.22211059e-05 1.63290624e-05 -2.23698589e-05 -1.38881123e-05
      1.50457554e-05 -1.89243674e-05 -8.89999319e-06 1.70627027e-05
      -1.19449423e-05 -4.74172202e-06 2.11222541e-05 -1.35645632e-05
      -5.06849483e-06 1.80870647e-05 -2.19770081e-05 -1.31901534e-05
      5.40327301e-06 -2.31286976e-05 -2.09348018e-05 -9.96351446e-06
      -1.83308603e-05 -2.05488432e-05 -1.02976646e-05 -1.84064393e-05
      -2.11343759e-05 -1.63931636e-05 -3.06019137e-06 -5.41727695e-06
      -1.94976292e-06 -1.69215818e-05 -1.69871528e-05 -1.65745732e-05
      -7.68481459e-06 -1.08859176e-05 -1.15721778e-05 -6.26210431e-06
      -1.74272100e-05 -1.35751980e-05 1.99848364e-05 2.25929180e-05
      2.15391156e-05 4.00283388e-05 3.54039548e-05 3.95053103e-05
      3.39429462e-05 3.00566080e-05 3.17039048e-05 2.21772734e-05
      1.55918206e-05 1.95834655e-05 2.15502550e-05 1.19874139e-05
      1.69014838e-05 1.65555866e-05 9.01534440e-06 1.23036270e-05
      1.43960833e-05 5.92890456e-06 7.58609713e-06 1.51494123e-05
      1.15074135e-05 1.58307357e-05 1.45282602e-05 1.09592920e-05
      2.45179581e-05 -5.34735000e-06 -6.98955728e-06 1.06232264e-05
      -1.10470310e-05 -9.19733975e-06 1.06101224e-05 -1.37251236e-05
      -1.19576116e-05 1.39177391e-05 -1.02897511e-05 -8.15201656e-06
      1.88614849e-05 -8.03325474e-06 -5.18575052e-06 2.33178071e-05
      -2.20192287e-05 -1.97087993e-05 1.29019909e-05 -1.99326732e-05
      -1.72038672e-05 1.47033388e-05 -1.43531588e-05 -1.22731653e-05
      2.00635204e-05 -7.66545509e-06 -5.97270400e-06 2.45453011e-05
      -1.92715220e-06 2.50578773e-06 3.05262220e-05 -3.28384658e-06
      -5.22069627e-07 2.67906908e-05 -4.28301428e-06 -2.32852540e-06
      2.41137495e-05 4.58547174e-06 8.16645297e-06 2.75762177e-05
      -1.39398599e-05 -1.12717389e-05 7.28566692e-06 -1.05403287e-05
      -9.76104548e-06 6.10244660e-06 -8.43904127e-06 -1.19983506e-05
      3.95848656e-06 -3.65963297e-06 -9.33527008e-06 -1.12668613e-06
      -4.29285279e-07 -1.05441859e-05 -3.91472668e-06 -1.48095760e-05
      -2.22321087e-05 -1.70461026e-05 -1.03398115e-05 -2.02081465e-05
      -1.68324768e-05 -1.45501162e-05 -2.91109627e-05 -2.13628846e-05</_></support_vectors>
  <uncompressed_sv_total>24</uncompressed_sv_total>
  <uncompressed_support_vectors>
    <_>
      182. 68. 201. 144. 86. 175. 130. 64. 154. 72. 4. 81. 62. 3. 75.
      75. 6. 80. 88. 16. 95. 106. 33. 114. 137. 63. 165. 102. 33. 136.
      98. 28. 113. 99. 20. 105. 98. 27. 107. 108. 33. 124. 110. 33. 124.
      100. 26. 116. 93. 19. 106. 76. 6. 92. 78. 6. 89. 73. 7. 84. 69. 5.
      81. 73. 6. 82. 69. 4. 80. 66. 4. 75. 62. 3. 72. 60. 3. 71. 66. 5.
      82. 112. 56. 140. 117. 59. 147. 116. 59. 149. 153. 90. 179. 104.
      120. 137. 50. 59. 68. 27. 22. 31. 18. 18. 30. 33. 35. 46. 25. 25.
      43. 38. 40. 58. 81. 94. 142. 88. 101. 152. 45. 52. 95. 59. 55. 81.
      38. 47. 54. 50. 54. 83. 88. 95. 134. 44. 42. 80. 39. 40. 68. 21.
      24. 45. 26. 27. 46. 18. 19. 33. 14. 16. 26. 17. 22. 31. 17. 19.
      29. 18. 19. 42. 14. 20. 32. 10. 17. 26. 11. 17. 24. 61. 92. 96.
      60. 93. 109. 62. 90. 104. 158. 94. 183. 103. 120. 134. 40. 44. 53.
      51. 50. 60. 37. 40. 44. 35. 32. 45. 37. 50. 73. 42. 48. 80. 67.
      79. 136. 84. 98. 157. 108. 119. 177. 77. 87. 139. 21. 23. 65. 32.
      32. 60. 68. 67. 112. 48. 54. 106. 31. 38. 80. 12. 19. 46. 18. 25.
      53. 17. 17. 44. 8. 13. 33. 12. 14. 25. 10. 13. 27. 17. 22. 41. 5.
      12. 32. 5. 11. 22. 4. 12. 19. 9. 21. 35. 60. 90. 109. 61. 91. 110.
      160. 99. 182. 65. 77. 89. 46. 45. 47. 59. 58. 62. 33. 36. 50. 32.
      38. 70. 73. 75. 118. 72. 78. 131. 68. 80. 132. 87. 97. 161. 150.
      158. 221. 134. 145. 206. 55. 66. 116. 16. 25. 59. 81. 88. 137. 58.
      81. 128. 26. 34. 94. 43. 52. 99. 17. 24. 64. 18. 33. 74. 10. 15.
      42. 8. 12. 22. 8. 13. 22. 11. 17. 33. 9. 17. 45. 6. 8. 18. 6. 6.
      15. 8. 12. 21. 71. 93. 99. 68. 93. 109. 163. 101. 187. 57. 58. 68.
      39. 42. 47. 34. 35. 39. 31. 38. 53. 71. 82. 128. 85. 97. 147. 112.
      128. 181. 102. 122. 179. 116. 135. 196. 135. 147. 211. 161. 177.
      233. 164. 179. 226. 22. 30. 90. 91. 102. 152. 103. 119. 175. 63.
      81. 142. 32. 55. 111. 28. 39. 97. 65. 76. 134. 19. 37. 85. 7. 10.
      37. 6. 13. 22. 4. 11. 24. 8. 19. 59. 7. 9. 19. 2. 8. 15. 6. 9. 14.
      62. 76. 95. 70. 94. 110. 174. 112. 199. 61. 61. 67. 52. 51. 55.
      45. 45. 53. 55. 63. 77. 88. 111. 156. 101. 122. 174. 123. 149.
      202. 140. 160. 214. 143. 163. 215. 151. 166. 218. 169. 180. 231.
      167. 181. 232. 154. 169. 217. 124. 133. 192. 119. 134. 195. 112.
      125. 188. 102. 114. 177. 69. 92. 151. 92. 109. 176. 79. 106. 170.
      15. 35. 83. 13. 14. 33. 9. 11. 21. 20. 40. 79. 0. 6. 23. 3. 9. 14.
      7. 8. 16. 64. 83. 92. 70. 95. 112. 167. 104. 189. 47. 49. 58. 33.
      32. 34. 39. 33. 44. 58. 56. 83. 86. 104. 155. 107. 127. 179. 134.
      148. 199. 142. 150. 193. 151. 159. 208. 150. 159. 202. 149. 164.
      214. 143. 158. 214. 136. 150. 210. 129. 148. 211. 130. 148. 210.
      111. 134. 196. 113. 133. 194. 112. 129. 194. 111. 131. 195. 107.
      130. 193. 82. 109. 169. 21. 34. 92. 7. 17. 55. 39. 65. 110. 5. 4.
      24. 8. 10. 17. 10. 15. 23. 69. 88. 98. 69. 94. 111. 175. 112. 195.
      43. 40. 55. 43. 45. 46. 41. 40. 52. 61. 76. 108. 95. 120. 166.
      110. 117. 157. 105. 102. 141. 93. 96. 126. 58. 58. 97. 69. 73.
      108. 74. 83. 121. 108. 116. 169. 126. 141. 203. 120. 142. 207.
      122. 141. 208. 105. 130. 194. 102. 124. 190. 110. 126. 192. 81.
      105. 159. 81. 91. 139. 72. 90. 133. 73. 93. 140. 56. 79. 136. 37.
      67. 124. 0. 5. 26. 8. 11. 17. 6. 12. 17. 68. 91. 107. 70. 94. 114.
      173. 107. 190. 40. 50. 54. 43. 43. 52. 41. 50. 52. 97. 116. 153.
      103. 118. 165. 90. 104. 151. 120. 132. 180. 132. 146. 195. 138.
      154. 199. 96. 109. 162. 66. 87. 138. 64. 85. 130. 90. 114. 159.
      109. 130. 192. 110. 126. 193. 97. 116. 184. 67. 87. 146. 34. 52.
      99. 33. 45. 90. 27. 40. 86. 21. 36. 73. 34. 51. 87. 44. 59. 100.
      45. 70. 115. 9. 7. 29. 7. 12. 21. 8. 10. 18. 70. 96. 110. 72. 97.
      113. 184. 119. 202. 42. 45. 49. 41. 39. 44. 32. 38. 49. 111. 117.
      166. 86. 102. 143. 97. 113. 158. 111. 123. 181. 133. 151. 214.
      173. 184. 235. 158. 171. 222. 108. 130. 189. 73. 95. 155. 83. 107.
      163. 109. 124. 187. 109. 125. 191. 83. 99. 167. 44. 64. 122. 34.
      61. 121. 57. 79. 145. 96. 114. 177. 84. 112. 173. 76. 95. 158. 46.
      70. 131. 42. 66. 115. 0. 0. 27. 10. 15. 21. 11. 15. 22. 68. 91.
      107. 72. 97. 117. 200. 132. 209. 67. 76. 80. 46. 48. 54. 41. 45.
      63. 113. 132. 177. 99. 108. 159. 72. 94. 137. 79. 86. 141. 84. 90.
      138. 122. 133. 171. 81. 88. 137. 104. 123. 188. 85. 108. 174. 80.
      109. 170. 118. 139. 201. 129. 149. 210. 79. 108. 175. 62. 81. 148.
      71. 85. 154. 80. 102. 168. 116. 131. 191. 101. 118. 188. 74. 89.
      158. 49. 69. 127. 40. 60. 116. 3. 12. 45. 10. 12. 22. 12. 22. 29.
      80. 90. 107. 74. 94. 111. 215. 147. 226. 60. 68. 99. 56. 53. 67.
      92. 92. 119. 120. 135. 186. 114. 134. 187. 51. 80. 131. 56. 60.
      110. 82. 76. 126. 72. 69. 109. 45. 42. 72. 28. 30. 81. 125. 145.
      202. 102. 123. 188. 133. 150. 213. 133. 160. 215. 90. 113. 179.
      93. 108. 176. 85. 96. 156. 56. 65. 106. 12. 12. 35. 21. 25. 59.
      31. 42. 97. 28. 58. 111. 47. 70. 127. 26. 46. 85. 11. 16. 22. 31.
      44. 59. 74. 98. 117. 75. 98. 114. 224. 155. 235. 43. 42. 101. 58.
      53. 81. 104. 112. 141. 120. 139. 189. 125. 145. 206. 127. 150.
      202. 118. 126. 190. 106. 115. 181. 106. 115. 182. 94. 101. 166.
      120. 134. 190. 126. 147. 202. 116. 130. 194. 162. 167. 217. 173.
      169. 213. 111. 124. 184. 109. 127. 191. 82. 111. 170. 83. 92. 156.
      77. 86. 137. 46. 59. 107. 37. 54. 103. 32. 59. 116. 53. 90. 145.
      43. 70. 116. 15. 15. 35. 74. 99. 116. 72. 102. 118. 74. 100. 116.
      231. 160. 235. 69. 60. 127. 64. 65. 113. 109. 107. 137. 113. 130.
      181. 128. 141. 203. 151. 167. 220. 170. 180. 228. 152. 165. 217.
      145. 149. 199. 166. 166. 202. 249. 249. 249. 252. 242. 250. 251.
      243. 253. 250. 245. 248. 251. 244. 249. 249. 244. 245. 225. 224.
      226. 223. 227. 228. 156. 156. 186. 89. 99. 149. 63. 93. 149. 70.
      91. 153. 72. 95. 163. 69. 91. 157. 54. 81. 137. 13. 20. 64. 82.
      102. 129. 77. 104. 124. 73. 98. 116. 230. 162. 240. 136. 135. 172.
      48. 40. 104. 216. 209. 227. 118. 122. 162. 182. 179. 212. 250.
      247. 249. 247. 241. 248. 252. 246. 237. 244. 237. 231. 222. 216.
      210. 232. 225. 225. 244. 238. 231. 247. 240. 237. 250. 248. 235.
      244. 240. 234. 243. 237. 234. 227. 228. 227. 194. 196. 194. 213.
      217. 222. 220. 222. 220. 211. 215. 217. 199. 201. 205. 201. 208.
      221. 117. 128. 163. 50. 69. 118. 31. 52. 110. 75. 104. 126. 74.
      98. 117. 75. 98. 119. 234. 166. 243. 136. 141. 161. 202. 196. 209.
      75. 73. 101. 154. 149. 146. 237. 232. 229. 253. 247. 246. 244.
      233. 235. 228. 219. 210. 233. 224. 216. 207. 204. 194. 218. 210.
      191. 254. 252. 231. 254. 251. 231. 240. 239. 208. 251. 251. 233.
      238. 232. 208. 227. 224. 195. 199. 201. 186. 215. 215. 209. 222.
      226. 227. 200. 202. 202. 208. 213. 214. 203. 208. 209. 172. 178.
      184. 124. 124. 139. 46. 68. 129. 78. 105. 126. 76. 100. 122. 76.
      98. 120. 234. 168. 244. 193. 198. 199. 254. 252. 252. 84. 86. 106.
      183. 176. 179. 233. 222. 213. 251. 244. 236. 216. 209. 190. 216.
      204. 180. 212. 196. 170. 244. 230. 201. 232. 220. 192. 248. 236.
      209. 250. 241. 214. 255. 255. 231. 253. 249. 230. 235. 233. 209.
      221. 214. 194. 217. 213. 189. 207. 206. 185. 172. 171. 157. 153.
      154. 150. 201. 199. 198. 190. 192. 192. 156. 165. 170. 72. 70. 89.
      74. 77. 128. 82. 101. 118. 76. 102. 118. 79. 98. 115. 241. 172.
      244. 191. 198. 201. 218. 216. 216. 69. 66. 88. 131. 128. 142. 167.
      161. 140. 227. 209. 172. 243. 227. 190. 240. 229. 192. 252. 240.
      204. 239. 226. 193. 235. 225. 192. 237. 225. 191. 237. 225. 199.
      246. 232. 208. 250. 249. 228. 229. 231. 209. 219. 217. 196. 214.
      211. 196. 208. 207. 183. 213. 212. 183. 208. 206. 181. 182. 183.
      174. 170. 174. 160. 120. 122. 119. 116. 120. 145. 86. 99. 129. 80.
      100. 119. 74. 103. 119. 75. 96. 113. 243. 172. 245. 194. 197. 198.
      188. 196. 196. 84. 83. 94. 76. 77. 99. 193. 178. 146. 213. 198.
      158. 253. 232. 197. 247. 233. 197. 235. 222. 184. 236. 225. 187.
      244. 230. 197. 235. 223. 186. 223. 217. 191. 221. 216. 191. 242.
      240. 215. 206. 201. 181. 222. 221. 200. 210. 208. 182. 206. 206.
      181. 192. 194. 175. 189. 191. 170. 172. 172. 163. 145. 152. 139.
      92. 100. 100. 162. 183. 203. 88. 104. 122. 79. 101. 119. 74. 102.
      117. 74. 96. 114. 244. 175. 245. 194. 198. 199. 189. 194. 195.
      188. 193. 197. 89. 94. 115. 236. 219. 193. 240. 225. 190. 233.
      223. 176. 253. 238. 194. 251. 239. 201. 234. 224. 190. 179. 165.
      142. 189. 178. 154. 186. 176. 152. 211. 204. 177. 221. 216. 193.
      150. 148. 138. 131. 130. 121. 140. 141. 119. 165. 167. 148. 193.
      192. 173. 195. 197. 177. 185. 187. 168. 160. 162. 141. 155. 161.
      152. 88. 110. 128. 84. 106. 124. 79. 101. 119. 74. 98. 118. 73.
      94. 111. 245. 174. 246. 199. 201. 202. 192. 195. 196. 181. 189.
      189. 96. 92. 117. 252. 243. 210. 233. 224. 180. 216. 205. 157.
      162. 144. 107. 148. 141. 99. 157. 151. 114. 169. 161. 133. 181.
      172. 145. 206. 198. 165. 213. 208. 176. 200. 195. 177. 156. 156.
      138. 154. 155. 140. 136. 137. 126. 127. 133. 119. 125. 126. 115.
      116. 118. 100. 163. 161. 142. 152. 154. 135. 180. 178. 163. 88.
      106. 123. 84. 104. 121. 80. 99. 116. 74. 99. 115. 71. 96. 112.
      245. 176. 245. 197. 201. 202. 189. 193. 194. 181. 186. 189. 93.
      95. 108. 196. 173. 146. 147. 130. 97. 202. 188. 147. 235. 217.
      183. 246. 236. 205. 248. 239. 205. 246. 234. 201. 239. 227. 187.
      216. 207. 172. 212. 203. 176. 183. 178. 153. 212. 211. 183. 223.
      220. 198. 207. 204. 182. 194. 196. 174. 205. 208. 188. 198. 200.
      187. 185. 185. 171. 119. 127. 120. 173. 174. 157. 88. 102. 121.
      83. 103. 119. 76. 102. 117. 73. 99. 113. 69. 93. 108. 246. 177.
      247. 200. 202. 203. 191. 195. 196. 188. 193. 194. 94. 103. 113.
      230. 212. 196. 211. 197. 155. 227. 216. 172. 246. 232. 190. 233.
      224. 190. 255. 255. 226. 223. 212. 181. 221. 210. 181. 208. 204.
      175. 208. 205. 181. 168. 170. 141. 222. 221. 195. 224. 221. 200.
      227. 225. 202. 221. 218. 190. 216. 217. 191. 210. 209. 181. 184.
      181. 167. 162. 165. 147. 175. 181. 159. 86. 101. 117. 80. 102.
      118. 76. 101. 117. 74. 95. 110. 67. 93. 110. 245. 178. 245. 200.
      200. 200. 191. 195. 196. 185. 188. 192. 90. 102. 103. 232. 211.
      199. 141. 122. 93. 156. 138. 107. 175. 156. 134. 184. 168. 138.
      223. 211. 184. 253. 252. 221. 197. 188. 153. 182. 175. 154. 197.
      194. 172. 193. 189. 163. 244. 237. 210. 242. 238. 211. 233. 230.
      204. 173. 166. 150. 113. 112. 103. 99. 104. 101. 107. 110. 105.
      114. 116. 113. 96. 107. 109. 81. 104. 120. 76. 103. 110. 76. 96.
      114. 69. 93. 113. 71. 92. 108. 244. 174. 245. 197. 199. 199. 189.
      194. 193. 183. 189. 192. 167. 173. 176. 245. 223. 196. 214. 204.
      158. 222. 213. 176. 176. 173. 145. 128. 122. 106. 110. 113. 94.
      144. 132. 114. 205. 201. 176. 182. 177. 156. 174. 174. 155. 204.
      202. 181. 191. 191. 166. 197. 195. 176. 185. 185. 165. 116. 119.
      117. 118. 127. 118. 136. 145. 134. 138. 145. 137. 119. 126. 118.
      88. 106. 114. 79. 104. 118. 76. 99. 114. 77. 97. 114. 72. 91. 108.
      67. 90. 108. 245. 176. 246. 197. 199. 199. 190. 192. 192. 183.
      186. 190. 184. 186. 187. 164. 166. 167. 204. 192. 173. 255. 255.
      215. 255. 254. 218. 229. 222. 192. 165. 158. 131. 195. 186. 164.
      187. 182. 158. 179. 178. 152. 174. 171. 143. 185. 182. 154. 204.
      200. 175. 176. 176. 157. 167. 167. 153. 160. 161. 145. 175. 177.
      160. 189. 189. 174. 140. 140. 128. 106. 120. 129. 86. 101. 118.
      80. 101. 116. 78. 97. 112. 72. 94. 112. 67. 90. 106. 63. 89. 106.
      244. 171. 244. 194. 196. 196. 188. 190. 190. 184. 186. 187. 180.
      180. 185. 174. 176. 177. 88. 93. 93. 115. 105. 95. 253. 238. 210.
      253. 254. 224. 199. 185. 157. 181. 167. 143. 160. 160. 140. 179.
      170. 150. 160. 160. 146. 174. 174. 149. 175. 174. 154. 164. 167.
      145. 143. 142. 129. 191. 191. 174. 199. 198. 178. 187. 188. 168.
      90. 94. 93. 86. 103. 113. 81. 100. 115. 73. 99. 116. 72. 93. 111.
      71. 91. 108. 66. 91. 107. 60. 87. 102. 243. 169. 244. 195. 195.
      195. 185. 187. 187. 181. 183. 183. 161. 162. 163. 93. 94. 98. 66.
      68. 76. 86. 86. 88. 107. 99. 88. 235. 217. 183. 253. 248. 222.
      161. 150. 128. 132. 132. 116. 139. 138. 128. 152. 149. 138. 167.
      169. 146. 168. 162. 151. 157. 152. 138. 152. 150. 143. 185. 188.
      165. 107. 105. 100. 81. 93. 91. 81. 107. 111. 84. 99. 116. 74.
      100. 113. 74. 94. 112. 72. 90. 108. 74. 92. 103. 69. 89. 104. 60.
      82. 94. 239. 166. 241. 201. 199. 199. 39. 32. 34. 34. 34. 40. 21.
      23. 23. 40. 54. 57. 39. 53. 73. 79. 84. 93. 90. 85. 87. 108. 102.
      98. 229. 218. 188. 225. 221. 186. 162. 162. 139. 116. 118. 112.
      155. 154. 143. 157. 154. 139. 171. 174. 149. 171. 173. 153. 153.
      155. 133. 111. 113. 107. 84. 95. 92. 77. 89. 91. 79. 91. 101. 75.
      99. 109. 69. 96. 111. 68. 95. 109. 67. 91. 103. 64. 90. 106. 59.
      83. 105. 59. 79. 99. 102. 12. 89. 49. 41. 43. 50. 41. 66. 31. 34.
      33. 25. 36. 35. 25. 33. 50. 66. 76. 105. 34. 36. 72. 81. 81. 87.
      90. 93. 89. 95. 92. 83. 171. 160. 140. 156. 152. 133. 146. 146.
      130. 126. 127. 118. 145. 142. 131. 145. 142. 131. 124. 123. 113.
      129. 127. 122. 84. 95. 92. 77. 90. 91. 22. 37. 48. 112. 118. 134.
      18. 32. 35. 16. 19. 22. 18. 25. 33. 38. 53. 59. 65. 88. 97. 56.
      85. 93. 60. 78. 95.</_>
    <_>
      178. 64. 200. 148. 86. 172. 124. 55. 140. 61. 2. 72. 62. 4. 75.
      68. 3. 78. 97. 24. 102. 110. 36. 128. 145. 66. 170. 107. 31. 130.
      95. 20. 99. 85. 12. 96. 98. 20. 108. 108. 31. 126. 106. 32. 125.
      94. 20. 105. 91. 16. 98. 79. 8. 92. 75. 7. 83. 76. 6. 83. 69. 4.
      79. 70. 5. 80. 72. 5. 83. 64. 3. 78. 59. 3. 73. 57. 2. 73. 77. 11.
      94. 119. 59. 149. 120. 59. 149. 117. 56. 146. 153. 92. 177. 93.
      106. 128. 27. 32. 44. 20. 26. 35. 27. 32. 41. 33. 39. 50. 50. 51.
      77. 80. 79. 105. 93. 104. 151. 83. 95. 148. 31. 36. 67. 32. 35.
      64. 43. 40. 61. 41. 34. 71. 61. 63. 108. 36. 40. 64. 23. 29. 48.
      21. 25. 45. 17. 27. 46. 17. 21. 32. 15. 19. 30. 17. 21. 32. 17.
      22. 31. 17. 21. 39. 15. 20. 31. 7. 16. 20. 12. 21. 28. 68. 92.
      106. 66. 90. 108. 59. 92. 105. 153. 93. 181. 97. 98. 114. 37. 37.
      42. 32. 33. 38. 28. 31. 37. 37. 32. 54. 40. 43. 76. 27. 24. 59.
      84. 99. 148. 109. 122. 176. 106. 116. 175. 76. 79. 127. 19. 22.
      45. 50. 46. 80. 55. 62. 105. 42. 49. 98. 34. 40. 81. 19. 23. 48.
      15. 25. 51. 14. 18. 40. 10. 16. 23. 14. 16. 26. 10. 14. 23. 16.
      20. 43. 10. 12. 22. 5. 11. 18. 11. 12. 22. 42. 50. 63. 70. 90.
      108. 68. 91. 111. 157. 100. 185. 50. 52. 62. 55. 54. 58. 34. 38.
      39. 21. 21. 39. 36. 44. 79. 71. 82. 127. 55. 63. 113. 88. 90. 154.
      94. 108. 170. 114. 133. 193. 119. 133. 194. 30. 39. 90. 52. 55.
      86. 87. 101. 149. 55. 68. 123. 22. 32. 86. 24. 31. 75. 25. 39. 81.
      24. 35. 70. 8. 11. 34. 9. 15. 22. 8. 14. 21. 24. 33. 56. 9. 13.
      36. 6. 9. 17. 5. 10. 14. 10. 15. 24. 65. 92. 108. 67. 90. 110.
      165. 104. 184. 49. 52. 57. 49. 48. 52. 25. 30. 31. 40. 47. 72. 70.
      85. 133. 89. 103. 156. 95. 110. 166. 100. 123. 181. 117. 140. 197.
      127. 143. 202. 170. 178. 233. 146. 157. 201. 24. 39. 88. 107. 114.
      163. 89. 110. 165. 50. 69. 126. 29. 47. 100. 18. 23. 70. 41. 67.
      121. 6. 24. 64. 7. 13. 25. 4. 11. 20. 16. 24. 47. 12. 19. 56. 3.
      9. 16. 5. 7. 15. 7. 11. 16. 60. 90. 107. 69. 93. 109. 168. 99.
      181. 48. 45. 52. 50. 48. 55. 44. 41. 46. 72. 78. 107. 92. 112.
      162. 113. 134. 186. 133. 154. 210. 144. 164. 216. 150. 164. 215.
      158. 176. 229. 164. 183. 234. 160. 169. 222. 111. 132. 177. 122.
      137. 193. 126. 138. 199. 107. 118. 178. 102. 114. 177. 83. 94.
      156. 97. 115. 180. 85. 102. 167. 15. 20. 63. 9. 11. 32. 6. 8. 32.
      12. 29. 70. 1. 5. 16. 6. 9. 17. 7. 9. 19. 70. 88. 99. 68. 93. 112.
      173. 106. 190. 66. 61. 72. 36. 35. 44. 47. 42. 53. 87. 98. 123.
      97. 107. 163. 106. 130. 183. 139. 154. 202. 136. 144. 187. 152.
      161. 201. 142. 157. 198. 149. 167. 217. 145. 157. 214. 131. 152.
      210. 133. 148. 210. 131. 148. 208. 114. 135. 197. 112. 133. 196.
      110. 128. 193. 109. 129. 196. 108. 129. 191. 80. 99. 163. 39. 52.
      109. 5. 11. 47. 34. 52. 107. 4. 7. 21. 6. 11. 16. 9. 15. 26. 75.
      95. 113. 69. 93. 111. 171. 107. 189. 37. 38. 48. 47. 47. 53. 43.
      45. 59. 74. 97. 135. 94. 120. 162. 104. 116. 157. 88. 97. 135. 82.
      91. 128. 70. 62. 102. 59. 60. 98. 62. 81. 118. 111. 126. 180. 118.
      136. 197. 122. 139. 204. 117. 136. 204. 110. 127. 194. 105. 122.
      189. 112. 123. 183. 87. 104. 160. 84. 95. 139. 82. 96. 138. 71.
      90. 135. 45. 57. 112. 30. 57. 108. 11. 8. 17. 9. 13. 18. 13. 16.
      27. 69. 95. 112. 69. 95. 112. 170. 99. 179. 51. 45. 57. 42. 39.
      49. 29. 33. 48. 102. 116. 158. 105. 114. 160. 100. 116. 158. 125.
      138. 184. 137. 153. 195. 127. 143. 195. 92. 104. 156. 65. 87. 134.
      65. 85. 130. 95. 116. 168. 110. 126. 194. 103. 122. 193. 91. 117.
      179. 57. 70. 129. 32. 42. 88. 30. 38. 82. 27. 38. 73. 32. 37. 79.
      33. 46. 89. 40. 58. 98. 33. 66. 108. 5. 10. 20. 4. 10. 18. 7. 16.
      22. 73. 95. 112. 69. 94. 114. 176. 107. 187. 41. 39. 45. 51. 48.
      58. 55. 57. 80. 103. 122. 173. 84. 96. 140. 103. 117. 165. 110.
      128. 187. 144. 159. 222. 180. 187. 241. 155. 171. 219. 93. 116.
      176. 67. 91. 144. 89. 108. 167. 104. 125. 189. 98. 123. 187. 71.
      88. 156. 44. 62. 127. 47. 67. 132. 63. 82. 145. 92. 110. 172. 82.
      103. 167. 69. 89. 149. 43. 63. 115. 38. 70. 115. 2. 6. 20. 12. 16.
      22. 26. 30. 35. 70. 93. 110. 69. 95. 114. 178. 103. 191. 62. 58.
      69. 39. 41. 42. 92. 97. 127. 115. 133. 174. 80. 96. 143. 84. 97.
      143. 66. 73. 128. 91. 97. 142. 133. 129. 170. 41. 48. 97. 96. 118.
      183. 80. 100. 165. 110. 126. 193. 129. 156. 210. 118. 143. 202.
      73. 102. 163. 59. 81. 146. 77. 96. 163. 82. 97. 169. 111. 121.
      187. 87. 110. 181. 47. 77. 142. 34. 57. 122. 36. 59. 116. 8. 8.
      32. 12. 14. 24. 36. 46. 55. 72. 94. 112. 70. 95. 113. 217. 148.
      229. 57. 56. 95. 50. 46. 63. 110. 118. 152. 116. 137. 187. 117.
      133. 184. 57. 65. 117. 63. 65. 111. 85. 82. 129. 27. 25. 55. 50.
      47. 76. 52. 61. 116. 109. 123. 187. 104. 130. 196. 142. 163. 222.
      120. 144. 203. 89. 105. 181. 86. 109. 177. 50. 60. 124. 57. 67.
      102. 12. 16. 34. 31. 42. 82. 5. 29. 76. 35. 58. 113. 51. 79. 138.
      2. 6. 34. 16. 20. 30. 61. 80. 88. 78. 101. 116. 75. 99. 115. 213.
      140. 230. 45. 32. 93. 60. 62. 82. 106. 120. 157. 119. 138. 188.
      127. 147. 205. 125. 145. 206. 95. 113. 172. 101. 117. 177. 95.
      100. 168. 103. 109. 174. 126. 146. 197. 106. 128. 190. 122. 135.
      196. 174. 175. 218. 152. 151. 203. 108. 119. 188. 99. 121. 186.
      85. 102. 161. 78. 99. 155. 76. 83. 137. 41. 52. 97. 37. 55. 102.
      38. 75. 128. 62. 88. 144. 12. 27. 66. 16. 18. 46. 77. 105. 121.
      74. 101. 121. 75. 96. 118. 223. 158. 240. 56. 64. 131. 50. 47. 78.
      121. 116. 157. 124. 134. 194. 134. 147. 211. 152. 171. 222. 149.
      170. 221. 154. 157. 211. 142. 145. 195. 164. 155. 188. 249. 246.
      251. 252. 244. 253. 251. 242. 252. 251. 243. 251. 255. 247. 248.
      238. 235. 237. 233. 234. 232. 214. 220. 231. 105. 107. 147. 90.
      96. 155. 68. 89. 151. 78. 95. 162. 74. 98. 164. 58. 86. 147. 35.
      65. 106. 18. 27. 65. 84. 105. 126. 77. 101. 121. 75. 98. 116. 231.
      161. 239. 89. 99. 145. 49. 39. 85. 127. 125. 142. 117. 123. 170.
      200. 198. 226. 251. 248. 249. 252. 247. 248. 245. 239. 233. 246.
      238. 232. 216. 213. 207. 241. 237. 230. 244. 235. 232. 241. 236.
      231. 250. 248. 237. 252. 249. 245. 242. 235. 237. 221. 221. 220.
      196. 200. 198. 212. 216. 217. 208. 215. 211. 208. 213. 217. 189.
      198. 209. 182. 193. 210. 68. 84. 124. 47. 64. 112. 17. 36. 92. 84.
      104. 121. 78. 101. 119. 74. 98. 115. 233. 165. 242. 145. 146. 170.
      168. 171. 176. 161. 160. 176. 139. 137. 135. 248. 241. 235. 253.
      245. 251. 250. 243. 243. 223. 218. 214. 233. 222. 218. 208. 205.
      197. 216. 208. 189. 255. 253. 229. 255. 251. 225. 254. 251. 229.
      250. 251. 231. 240. 236. 209. 218. 213. 195. 195. 194. 188. 223.
      221. 221. 210. 213. 212. 194. 198. 199. 218. 221. 222. 192. 199.
      201. 152. 163. 170. 133. 151. 173. 44. 66. 117. 84. 105. 121. 75.
      99. 119. 73. 98. 118. 238. 169. 243. 190. 195. 196. 189. 183. 187.
      82. 84. 112. 224. 219. 216. 246. 231. 222. 255. 250. 243. 205.
      193. 175. 207. 193. 169. 218. 208. 180. 237. 226. 198. 235. 223.
      196. 242. 228. 204. 255. 250. 217. 250. 252. 232. 247. 241. 218.
      225. 225. 207. 213. 212. 192. 213. 210. 187. 210. 206. 187. 158.
      158. 140. 176. 177. 173. 200. 202. 202. 171. 175. 177. 112. 129.
      131. 178. 189. 197. 62. 89. 122. 80. 99. 120. 73. 99. 116. 72. 98.
      118. 240. 171. 244. 191. 198. 201. 253. 251. 251. 80. 84. 105.
      198. 192. 194. 165. 162. 135. 234. 221. 186. 240. 224. 186. 241.
      229. 195. 245. 230. 198. 240. 229. 199. 248. 237. 208. 241. 230.
      198. 232. 228. 203. 246. 243. 218. 241. 237. 213. 226. 226. 202.
      216. 215. 193. 221. 219. 200. 208. 210. 181. 211. 210. 183. 195.
      192. 180. 182. 182. 170. 158. 162. 152. 105. 124. 125. 180. 189.
      203. 86. 104. 124. 78. 102. 117. 70. 102. 118. 68. 98. 115. 242.
      172. 244. 192. 196. 197. 155. 159. 158. 70. 76. 94. 149. 149. 155.
      192. 179. 148. 224. 206. 168. 242. 225. 184. 245. 229. 190. 232.
      216. 184. 242. 230. 196. 255. 244. 212. 234. 225. 193. 222. 211.
      187. 216. 209. 182. 240. 234. 210. 219. 218. 198. 218. 218. 198.
      195. 193. 175. 197. 199. 177. 194. 195. 172. 190. 191. 167. 183.
      186. 164. 136. 142. 131. 76. 91. 100. 121. 148. 162. 78. 106. 123.
      76. 100. 119. 71. 100. 115. 68. 95. 112. 244. 173. 245. 193. 197.
      198. 188. 194. 197. 128. 137. 147. 97. 87. 103. 192. 173. 140.
      249. 232. 189. 255. 249. 203. 250. 237. 191. 249. 236. 198. 229.
      215. 186. 164. 152. 128. 190. 178. 149. 191. 186. 155. 216. 204.
      179. 204. 201. 178. 135. 137. 131. 132. 128. 117. 141. 136. 121.
      176. 178. 159. 192. 192. 176. 184. 188. 163. 184. 186. 167. 158.
      156. 142. 81. 86. 92. 87. 107. 125. 82. 104. 121. 77. 103. 120.
      72. 98. 115. 76. 97. 114. 244. 174. 245. 195. 197. 198. 186. 190.
      191. 186. 190. 195. 92. 89. 98. 249. 238. 193. 237. 223. 182. 219.
      206. 159. 162. 149. 106. 158. 149. 115. 155. 146. 112. 170. 158.
      135. 188. 177. 149. 205. 196. 163. 215. 208. 182. 172. 169. 148.
      155. 157. 145. 146. 147. 138. 130. 130. 121. 130. 133. 123. 114.
      114. 103. 104. 108. 89. 164. 166. 147. 126. 134. 122. 107. 113.
      113. 85. 105. 122. 81. 104. 120. 73. 99. 116. 77. 96. 114. 75. 94.
      111. 244. 175. 245. 199. 200. 200. 188. 193. 196. 183. 194. 196.
      92. 90. 105. 205. 177. 145. 176. 156. 128. 224. 205. 167. 241.
      224. 192. 241. 229. 201. 231. 219. 183. 241. 226. 197. 209. 195.
      162. 214. 202. 170. 216. 209. 183. 163. 161. 139. 226. 223. 201.
      218. 217. 191. 195. 192. 168. 188. 193. 170. 205. 206. 189. 190.
      193. 175. 186. 192. 174. 131. 132. 120. 172. 167. 160. 87. 105.
      122. 81. 102. 120. 77. 99. 117. 75. 99. 115. 68. 93. 109. 245.
      175. 246. 196. 198. 198. 188. 193. 194. 186. 194. 194. 104. 106.
      114. 251. 232. 202. 219. 207. 163. 249. 233. 187. 240. 229. 183.
      246. 237. 197. 254. 250. 221. 222. 208. 178. 215. 207. 177. 213.
      202. 172. 206. 205. 180. 194. 193. 166. 224. 219. 194. 228. 224.
      200. 231. 228. 207. 220. 216. 192. 207. 206. 185. 206. 208. 181.
      179. 184. 163. 165. 165. 147. 178. 177. 165. 83. 107. 119. 75.
      101. 117. 73. 101. 118. 70. 94. 112. 69. 92. 113. 244. 172. 245.
      197. 199. 200. 188. 192. 193. 183. 189. 190. 133. 133. 140. 218.
      194. 166. 142. 125. 97. 167. 153. 122. 211. 197. 172. 204. 192.
      158. 219. 210. 180. 241. 238. 207. 186. 178. 151. 173. 167. 148.
      196. 189. 173. 228. 228. 192. 244. 239. 215. 243. 239. 213. 223.
      222. 201. 164. 163. 144. 110. 108. 96. 96. 100. 98. 95. 104. 98.
      104. 115. 105. 95. 102. 103. 87. 102. 117. 78. 99. 113. 74. 99.
      115. 69. 95. 111. 67. 93. 103. 244. 175. 245. 198. 198. 198. 187.
      193. 192. 181. 190. 190. 130. 125. 130. 238. 215. 179. 215. 204.
      164. 222. 209. 183. 151. 148. 124. 120. 119. 104. 121. 116. 106.
      184. 165. 147. 202. 198. 175. 173. 168. 146. 185. 185. 166. 207.
      203. 183. 196. 193. 164. 190. 188. 168. 170. 167. 154. 114. 120.
      115. 122. 127. 123. 137. 146. 138. 123. 129. 121. 107. 114. 117.
      86. 104. 118. 75. 103. 118. 72. 100. 115. 74. 94. 111. 68. 94.
      108. 63. 93. 102. 243. 171. 244. 197. 197. 197. 186. 191. 190.
      180. 186. 187. 139. 145. 144. 102. 100. 103. 222. 204. 170. 255.
      253. 220. 255. 255. 216. 209. 197. 171. 198. 194. 166. 179. 178.
      158. 152. 151. 128. 181. 175. 152. 185. 182. 154. 184. 181. 153.
      187. 185. 161. 158. 159. 139. 149. 150. 142. 184. 184. 168. 187.
      189. 173. 186. 194. 173. 102. 103. 99. 87. 108. 119. 79. 106. 118.
      75. 100. 116. 72. 98. 112. 68. 94. 111. 67. 91. 111. 69. 87. 104.
      243. 171. 244. 196. 195. 197. 187. 188. 188. 183. 187. 188. 176.
      181. 184. 169. 177. 174. 91. 93. 92. 194. 182. 157. 247. 238. 197.
      255. 255. 230. 188. 177. 149. 194. 180. 155. 158. 151. 131. 170.
      166. 148. 176. 171. 155. 182. 180. 160. 174. 172. 155. 159. 161.
      141. 153. 153. 143. 188. 188. 165. 200. 200. 177. 176. 175. 165.
      88. 99. 96. 79. 101. 116. 77. 99. 114. 74. 96. 113. 71. 94. 110.
      65. 90. 110. 64. 90. 104. 66. 84. 101. 240. 165. 242. 193. 193.
      193. 182. 184. 184. 187. 187. 189. 137. 134. 135. 55. 52. 55. 77.
      79. 90. 87. 90. 89. 119. 109. 89. 233. 219. 185. 250. 246. 218.
      137. 136. 114. 144. 139. 123. 153. 150. 136. 157. 154. 140. 193.
      187. 168. 179. 180. 159. 158. 158. 140. 158. 158. 144. 186. 189.
      163. 99. 100. 92. 87. 93. 93. 90. 112. 119. 74. 100. 112. 76. 97.
      112. 69. 95. 110. 67. 89. 108. 67. 90. 106. 63. 86. 101. 60. 77.
      96. 238. 164. 240. 186. 180. 181. 35. 25. 36. 31. 30. 31. 19. 22.
      27. 70. 74. 79. 46. 50. 79. 82. 81. 85. 96. 101. 96. 112. 100. 90.
      228. 226. 192. 215. 207. 178. 125. 127. 113. 136. 134. 124. 147.
      147. 133. 159. 158. 138. 178. 173. 158. 155. 158. 143. 160. 162.
      142. 101. 105. 100. 74. 89. 88. 77. 90. 93. 102. 115. 123. 76. 93.
      110. 71. 98. 103. 66. 92. 108. 68. 87. 101. 61. 87. 104. 61. 85.
      103. 60. 80. 98. 100. 18. 97. 42. 37. 38. 40. 30. 56. 48. 48. 49.
      34. 55. 57. 30. 45. 62. 30. 55. 76. 40. 43. 67. 82. 84. 84. 93.
      95. 94. 155. 148. 134. 159. 148. 128. 157. 153. 135. 128. 127.
      118. 134. 137. 124. 155. 155. 135. 151. 151. 131. 136. 138. 125.
      119. 117. 111. 84. 103. 99. 76. 92. 96. 22. 32. 47. 41. 48. 57.
      15. 27. 32. 13. 15. 19. 15. 23. 25. 55. 73. 78. 58. 85. 93. 59.
      87. 99. 57. 79. 89.</_>
    <_>
      183. 64. 198. 151. 89. 173. 118. 46. 133. 68. 2. 72. 84. 9. 91.
      90. 13. 96. 107. 28. 109. 130. 50. 147. 126. 43. 145. 98. 16. 111.
      106. 27. 112. 82. 10. 80. 118. 37. 123. 107. 32. 122. 105. 26.
      121. 102. 25. 111. 89. 10. 98. 91. 11. 95. 77. 3. 81. 75. 6. 85.
      76. 6. 85. 83. 8. 86. 77. 6. 82. 70. 4. 76. 65. 2. 75. 62. 2. 73.
      75. 5. 88. 117. 53. 141. 120. 57. 149. 108. 54. 138. 157. 90. 178.
      93. 98. 123. 37. 35. 47. 23. 23. 29. 35. 34. 44. 32. 36. 47. 54.
      48. 66. 85. 86. 124. 56. 55. 101. 59. 60. 108. 59. 60. 82. 27. 25.
      45. 65. 65. 76. 85. 82. 108. 44. 47. 78. 29. 40. 60. 28. 26. 46.
      35. 30. 45. 27. 22. 44. 16. 21. 30. 17. 23. 30. 21. 23. 31. 20.
      20. 32. 14. 18. 37. 16. 22. 29. 7. 17. 21. 14. 16. 26. 60. 86. 99.
      68. 89. 110. 71. 88. 109. 158. 92. 180. 69. 71. 86. 31. 28. 38.
      29. 28. 37. 31. 30. 41. 44. 36. 55. 33. 35. 59. 63. 54. 94. 90.
      100. 157. 121. 135. 186. 66. 71. 117. 34. 38. 77. 28. 32. 43. 91.
      94. 136. 72. 74. 115. 25. 37. 78. 25. 28. 53. 22. 23. 50. 21. 22.
      47. 17. 18. 30. 12. 17. 22. 13. 19. 24. 12. 15. 29. 17. 24. 47. 9.
      12. 29. 6. 12. 20. 10. 12. 22. 26. 36. 45. 68. 91. 105. 71. 90.
      107. 163. 97. 184. 41. 44. 48. 58. 58. 59. 45. 47. 55. 36. 41. 57.
      62. 63. 90. 74. 84. 131. 60. 76. 116. 111. 119. 178. 130. 144.
      206. 127. 134. 193. 93. 94. 150. 17. 17. 57. 63. 74. 112. 81. 94.
      142. 63. 59. 113. 40. 52. 94. 10. 25. 59. 27. 36. 79. 12. 20. 52.
      8. 12. 29. 10. 16. 23. 10. 12. 22. 35. 44. 71. 7. 13. 33. 6. 9.
      17. 4. 10. 17. 11. 12. 25. 62. 91. 105. 70. 92. 108. 171. 101.
      182. 49. 52. 53. 48. 52. 57. 22. 20. 30. 37. 48. 74. 59. 71. 123.
      111. 122. 179. 97. 118. 173. 110. 126. 185. 112. 128. 187. 157.
      170. 224. 166. 171. 220. 36. 40. 93. 60. 69. 112. 116. 126. 178.
      78. 92. 149. 41. 52. 106. 35. 50. 97. 60. 75. 121. 40. 57. 113.
      10. 16. 51. 8. 12. 21. 7. 13. 19. 55. 58. 95. 11. 14. 47. 4. 9.
      14. 5. 6. 16. 7. 10. 18. 64. 80. 95. 69. 94. 108. 163. 93. 176.
      42. 40. 46. 47. 46. 49. 50. 50. 55. 89. 103. 136. 96. 112. 158.
      116. 134. 183. 126. 140. 197. 144. 158. 207. 160. 171. 222. 165.
      175. 227. 179. 184. 233. 171. 177. 226. 120. 126. 173. 120. 129.
      185. 123. 135. 187. 119. 132. 184. 79. 95. 152. 70. 86. 144. 94.
      111. 175. 51. 64. 118. 11. 16. 40. 11. 13. 30. 16. 20. 40. 15. 28.
      68. 5. 7. 16. 6. 8. 16. 7. 9. 19. 70. 89. 99. 68. 93. 109. 166.
      88. 173. 43. 48. 47. 63. 62. 63. 51. 47. 59. 91. 105. 146. 109.
      124. 172. 115. 129. 183. 161. 166. 208. 152. 162. 202. 157. 163.
      206. 157. 166. 210. 153. 170. 219. 138. 156. 213. 138. 152. 205.
      140. 155. 211. 129. 147. 203. 117. 133. 192. 114. 137. 192. 114.
      132. 191. 116. 133. 194. 109. 124. 184. 57. 72. 128. 27. 40. 81.
      9. 13. 44. 24. 46. 92. 5. 5. 21. 9. 8. 17. 12. 12. 24. 73. 92.
      113. 72. 93. 108. 161. 89. 170. 48. 49. 53. 35. 34. 38. 41. 41.
      54. 95. 105. 147. 115. 127. 170. 109. 119. 151. 103. 108. 133. 72.
      70. 95. 78. 78. 109. 68. 76. 106. 107. 115. 154. 129. 142. 194.
      130. 143. 205. 130. 143. 207. 122. 134. 199. 113. 129. 195. 110.
      126. 192. 114. 127. 183. 108. 117. 168. 95. 108. 146. 103. 116.
      158. 74. 97. 137. 44. 58. 109. 44. 61. 111. 6. 11. 20. 8. 15. 18.
      6. 15. 18. 71. 94. 110. 71. 95. 110. 149. 80. 160. 48. 47. 47. 48.
      49. 53. 59. 55. 76. 93. 107. 148. 94. 105. 143. 104. 115. 150.
      122. 123. 164. 123. 128. 177. 97. 111. 157. 67. 87. 128. 63. 85.
      121. 84. 92. 140. 114. 129. 185. 120. 133. 198. 109. 125. 191.
      111. 122. 184. 64. 68. 120. 40. 41. 79. 36. 40. 74. 26. 32. 67.
      32. 41. 75. 54. 66. 104. 45. 60. 104. 35. 68. 114. 8. 10. 18. 9.
      9. 15. 8. 12. 17. 76. 95. 110. 70. 96. 112. 155. 86. 166. 45. 48.
      52. 45. 45. 48. 99. 101. 131. 96. 110. 150. 99. 104. 148. 109.
      122. 170. 131. 138. 199. 161. 171. 225. 180. 187. 229. 133. 144.
      200. 81. 93. 155. 77. 84. 137. 100. 114. 172. 113. 128. 192. 105.
      116. 181. 63. 81. 143. 39. 61. 117. 37. 57. 118. 73. 79. 143. 86.
      102. 161. 89. 107. 165. 60. 85. 135. 41. 66. 111. 50. 79. 121. 6.
      9. 18. 11. 15. 20. 11. 13. 18. 73. 97. 110. 75. 95. 112. 166. 95.
      171. 52. 48. 56. 41. 38. 42. 117. 127. 163. 107. 119. 160. 73. 88.
      130. 89. 96. 144. 106. 114. 172. 81. 84. 138. 101. 97. 148. 130.
      144. 202. 102. 120. 180. 82. 98. 160. 113. 129. 188. 138. 153.
      213. 107. 128. 188. 70. 95. 149. 64. 82. 140. 83. 103. 165. 100.
      116. 176. 112. 121. 189. 79. 104. 170. 56. 81. 143. 46. 65. 123.
      45. 71. 120. 8. 9. 21. 7. 15. 22. 11. 21. 25. 72. 96. 112. 73. 94.
      112. 212. 135. 220. 70. 64. 83. 49. 46. 52. 120. 129. 169. 121.
      134. 179. 86. 101. 147. 33. 39. 86. 53. 48. 86. 78. 71. 103. 65.
      58. 71. 34. 34. 64. 124. 133. 196. 89. 111. 169. 115. 136. 197.
      172. 186. 238. 120. 139. 200. 84. 101. 168. 79. 95. 154. 45. 60.
      112. 37. 46. 82. 35. 37. 76. 49. 67. 113. 40. 52. 110. 35. 56.
      108. 47. 77. 128. 6. 10. 42. 16. 22. 29. 38. 61. 67. 81. 100. 115.
      76. 99. 114. 177. 96. 187. 55. 44. 86. 60. 55. 67. 122. 131. 175.
      124. 139. 194. 130. 147. 200. 114. 121. 182. 101. 114. 168. 111.
      124. 179. 114. 121. 178. 104. 111. 169. 127. 143. 192. 106. 127.
      191. 126. 140. 206. 162. 164. 224. 130. 142. 206. 108. 120. 186.
      90. 104. 163. 107. 112. 167. 101. 108. 151. 56. 64. 93. 30. 36.
      73. 26. 38. 83. 49. 75. 129. 70. 88. 145. 28. 39. 79. 14. 17. 32.
      74. 96. 106. 81. 101. 118. 76. 98. 112. 189. 112. 199. 64. 59.
      115. 175. 164. 191. 117. 121. 169. 127. 138. 196. 139. 160. 215.
      156. 170. 222. 147. 156. 207. 136. 149. 201. 145. 143. 201. 153.
      150. 193. 232. 227. 242. 252. 241. 252. 252. 242. 252. 251. 244.
      249. 246. 241. 241. 243. 240. 239. 225. 226. 230. 111. 110. 148.
      89. 94. 147. 76. 88. 142. 71. 87. 146. 71. 91. 152. 73. 101. 165.
      67. 91. 151. 42. 63. 114. 8. 28. 59. 79. 101. 116. 86. 103. 120.
      79. 99. 116. 239. 161. 239. 82. 81. 131. 64. 55. 88. 119. 119.
      154. 130. 131. 187. 165. 163. 203. 221. 217. 238. 249. 246. 249.
      251. 244. 244. 251. 246. 242. 242. 235. 226. 238. 234. 224. 250.
      245. 239. 254. 247. 242. 251. 247. 240. 250. 245. 242. 223. 219.
      213. 211. 209. 208. 230. 231. 228. 213. 216. 216. 211. 213. 213.
      202. 208. 214. 172. 177. 205. 115. 118. 158. 67. 90. 140. 51. 70.
      118. 32. 49. 104. 77. 103. 124. 84. 102. 119. 76. 101. 115. 240.
      166. 242. 120. 113. 151. 138. 139. 148. 178. 179. 181. 184. 169.
      161. 254. 247. 242. 251. 245. 250. 220. 207. 204. 195. 185. 178.
      221. 212. 199. 233. 222. 205. 214. 203. 184. 235. 220. 200. 249.
      238. 207. 251. 250. 230. 249. 242. 214. 215. 214. 187. 206. 202.
      189. 222. 220. 215. 223. 219. 217. 202. 200. 199. 216. 216. 216.
      219. 221. 221. 208. 209. 209. 133. 138. 146. 134. 148. 167. 50.
      73. 134. 82. 101. 120. 84. 103. 118. 78. 99. 114. 242. 167. 243.
      151. 147. 147. 112. 105. 110. 65. 60. 80. 176. 172. 153. 241. 237.
      220. 251. 244. 241. 217. 208. 198. 196. 189. 160. 224. 214. 185.
      231. 217. 182. 253. 244. 210. 255. 255. 224. 251. 251. 225. 252.
      250. 234. 245. 240. 215. 226. 223. 195. 221. 214. 189. 219. 217.
      193. 186. 185. 164. 197. 197. 184. 216. 214. 213. 198. 199. 198.
      195. 198. 196. 133. 137. 144. 128. 127. 153. 60. 72. 128. 82. 102.
      120. 79. 102. 117. 74. 101. 115. 244. 169. 245. 195. 196. 196.
      204. 203. 204. 81. 87. 100. 202. 195. 184. 175. 165. 135. 216.
      204. 163. 242. 225. 189. 255. 242. 204. 239. 225. 181. 237. 221.
      186. 240. 226. 190. 243. 228. 192. 247. 238. 209. 252. 251. 231.
      245. 235. 211. 222. 220. 196. 219. 212. 187. 213. 208. 183. 205.
      206. 173. 198. 201. 170. 214. 213. 192. 179. 179. 165. 150. 151.
      143. 143. 148. 148. 119. 145. 161. 90. 100. 122. 81. 103. 115. 78.
      104. 116. 76. 99. 113. 245. 170. 245. 196. 196. 196. 165. 172.
      172. 85. 85. 103. 194. 180. 154. 220. 201. 159. 248. 229. 184.
      253. 234. 187. 241. 225. 183. 231. 215. 171. 240. 224. 187. 238.
      223. 177. 242. 225. 192. 237. 227. 197. 254. 250. 221. 253. 248.
      215. 229. 222. 195. 221. 220. 194. 214. 216. 194. 204. 199. 178.
      204. 200. 176. 175. 172. 151. 178. 180. 161. 174. 179. 153. 94.
      104. 100. 176. 191. 198. 88. 107. 115. 81. 104. 116. 75. 102. 112.
      73. 97. 110. 245. 170. 245. 197. 197. 197. 190. 192. 192. 92. 92.
      108. 220. 216. 187. 232. 213. 172. 247. 227. 180. 247. 234. 190.
      252. 236. 189. 250. 235. 191. 243. 230. 197. 254. 241. 208. 214.
      204. 166. 196. 190. 153. 222. 213. 177. 188. 177. 152. 138. 139.
      122. 171. 170. 150. 214. 211. 187. 206. 205. 180. 205. 204. 177.
      185. 183. 158. 183. 182. 163. 153. 154. 140. 59. 70. 81. 93. 105.
      117. 81. 107. 123. 79. 102. 114. 78. 100. 115. 72. 96. 108. 245.
      172. 245. 197. 201. 200. 191. 193. 193. 170. 171. 173. 252. 248.
      221. 211. 193. 141. 223. 209. 158. 247. 228. 182. 218. 207. 168.
      189. 177. 133. 163. 150. 118. 161. 150. 121. 202. 190. 153. 217.
      204. 169. 232. 221. 192. 165. 165. 140. 158. 156. 132. 143. 140.
      124. 147. 146. 121. 125. 125. 102. 128. 127. 109. 187. 186. 166.
      184. 183. 158. 141. 149. 133. 120. 125. 111. 87. 105. 120. 86.
      100. 118. 83. 102. 117. 75. 99. 113. 72. 95. 110. 246. 173. 246.
      200. 200. 200. 194. 192. 192. 182. 186. 187. 239. 228. 221. 180.
      159. 117. 142. 127. 80. 192. 178. 130. 234. 223. 179. 227. 215.
      175. 226. 212. 177. 216. 204. 162. 228. 215. 179. 220. 213. 174.
      214. 210. 180. 187. 185. 156. 186. 179. 154. 190. 192. 163. 168.
      171. 149. 164. 170. 147. 179. 185. 164. 185. 183. 163. 164. 165.
      140. 124. 124. 107. 152. 151. 138. 90. 105. 121. 86. 103. 116. 81.
      105. 116. 80. 98. 113. 76. 92. 107. 245. 172. 246. 200. 200. 200.
      195. 194. 196. 185. 190. 192. 87. 77. 91. 214. 196. 159. 219. 205.
      163. 238. 221. 178. 247. 236. 197. 255. 253. 214. 240. 231. 183.
      242. 224. 183. 225. 210. 172. 227. 218. 185. 186. 180. 157. 215.
      217. 183. 238. 233. 202. 240. 229. 201. 232. 222. 187. 218. 216.
      185. 218. 216. 185. 208. 208. 178. 189. 189. 166. 161. 166. 137.
      197. 195. 172. 83. 109. 116. 81. 102. 117. 77. 103. 114. 71. 94.
      110. 73. 93. 108. 246. 173. 246. 200. 200. 200. 193. 193. 193.
      188. 190. 190. 93. 88. 91. 190. 175. 137. 229. 213. 168. 229. 212.
      173. 222. 211. 159. 238. 226. 190. 254. 252. 221. 214. 204. 162.
      213. 206. 167. 212. 204. 175. 189. 185. 156. 236. 228. 198. 248.
      241. 212. 248. 241. 208. 238. 232. 203. 213. 208. 183. 151. 150.
      126. 96. 96. 78. 89. 90. 88. 99. 95. 84. 83. 84. 83. 85. 101. 118.
      79. 98. 113. 77. 99. 111. 73. 96. 111. 73. 94. 109. 245. 172. 245.
      197. 199. 199. 191. 191. 191. 186. 188. 188. 223. 208. 194. 215.
      194. 154. 178. 173. 135. 128. 124. 113. 118. 118. 100. 107. 97.
      75. 187. 172. 146. 226. 215. 184. 195. 184. 165. 192. 186. 166.
      200. 198. 167. 233. 226. 197. 220. 211. 188. 199. 193. 169. 178.
      171. 153. 117. 116. 110. 111. 119. 118. 120. 127. 125. 108. 120.
      112. 122. 123. 116. 93. 104. 112. 81. 103. 117. 80. 98. 114. 77.
      98. 105. 68. 95. 102. 70. 91. 105. 245. 172. 245. 198. 200. 200.
      192. 192. 192. 187. 187. 187. 140. 143. 143. 130. 117. 110. 222.
      212. 168. 238. 223. 182. 168. 164. 133. 137. 130. 110. 131. 128.
      107. 118. 109. 94. 187. 176. 154. 165. 156. 131. 206. 205. 176.
      204. 196. 171. 200. 195. 174. 165. 161. 140. 154. 161. 140. 155.
      156. 142. 162. 171. 157. 184. 184. 160. 142. 144. 139. 90. 109.
      115. 82. 104. 117. 84. 99. 116. 79. 97. 110. 77. 96. 111. 73. 89.
      106. 67. 92. 103. 245. 170. 245. 197. 197. 197. 188. 188. 188.
      186. 186. 186. 131. 137. 136. 146. 154. 153. 118. 102. 90. 252.
      249. 207. 254. 252. 212. 200. 190. 152. 183. 172. 135. 150. 145.
      117. 191. 180. 157. 183. 179. 155. 180. 176. 153. 174. 171. 143.
      160. 150. 133. 149. 147. 133. 129. 129. 116. 163. 160. 137. 202.
      206. 180. 189. 190. 174. 83. 92. 93. 82. 105. 113. 79. 99. 114.
      75. 101. 108. 71. 93. 104. 71. 94. 105. 72. 94. 100. 68. 91. 100.
      244. 169. 244. 197. 194. 196. 185. 187. 187. 180. 184. 185. 174.
      180. 181. 167. 177. 175. 91. 91. 88. 102. 96. 89. 213. 203. 166.
      250. 254. 217. 160. 147. 113. 136. 134. 114. 140. 145. 121. 131.
      130. 111. 163. 164. 139. 152. 146. 133. 172. 171. 160. 168. 161.
      143. 182. 182. 156. 189. 192. 167. 145. 142. 125. 86. 94. 90. 86.
      98. 107. 81. 101. 115. 75. 97. 108. 76. 95. 109. 76. 92. 108. 77.
      95. 103. 64. 91. 100. 60. 85. 96. 239. 164. 242. 195. 193. 193.
      37. 26. 28. 38. 28. 28. 22. 20. 20. 45. 61. 63. 47. 59. 70. 81.
      87. 82. 99. 94. 91. 221. 204. 167. 221. 211. 180. 147. 146. 118.
      120. 117. 100. 156. 153. 138. 164. 163. 145. 140. 137. 123. 158.
      161. 137. 184. 186. 164. 157. 160. 135. 91. 94. 84. 82. 95. 92.
      69. 87. 86. 97. 112. 124. 76. 100. 110. 74. 95. 106. 75. 91. 107.
      71. 92. 100. 71. 90. 97. 65. 87. 99. 63. 86. 101. 99. 21. 93. 42.
      34. 33. 42. 38. 47. 20. 18. 22. 31. 42. 47. 30. 39. 46. 36. 48.
      74. 83. 90. 96. 89. 87. 86. 99. 95. 89. 204. 191. 153. 173. 163.
      129. 151. 139. 119. 126. 123. 108. 113. 108. 102. 130. 129. 117.
      140. 137. 115. 119. 119. 108. 120. 116. 110. 94. 100. 99. 82. 95.
      95. 18. 20. 30. 42. 42. 45. 12. 14. 16. 6. 11. 12. 64. 77. 79. 72.
      90. 98. 61. 88. 96. 59. 83. 93. 55. 81. 91.</_>
    <_>
      194. 58. 209. 158. 83. 175. 103. 14. 113. 76. 1. 78. 93. 5. 99.
      94. 5. 99. 119. 28. 124. 143. 62. 175. 142. 57. 165. 117. 23. 135.
      106. 18. 116. 94. 5. 98. 118. 30. 127. 134. 44. 147. 108. 19. 128.
      105. 15. 115. 90. 2. 99. 87. 2. 98. 85. 2. 93. 86. 2. 88. 78. 1.
      82. 79. 2. 87. 74. 1. 85. 77. 2. 86. 77. 1. 82. 70. 1. 79. 72. 1.
      79. 75. 1. 83. 122. 51. 147. 144. 45. 164. 163. 84. 183. 96. 101.
      116. 28. 31. 35. 22. 21. 31. 32. 32. 43. 35. 31. 48. 41. 38. 49.
      89. 91. 130. 74. 94. 139. 89. 91. 140. 73. 65. 103. 21. 27. 59.
      58. 51. 64. 71. 68. 97. 64. 67. 111. 48. 44. 89. 36. 32. 56. 27.
      24. 39. 25. 27. 46. 21. 20. 40. 14. 16. 27. 17. 19. 29. 11. 17.
      24. 17. 24. 36. 14. 20. 34. 19. 22. 30. 10. 13. 21. 14. 18. 26.
      64. 79. 94. 92. 82. 119. 172. 92. 189. 34. 39. 48. 53. 52. 61. 28.
      26. 40. 38. 41. 52. 46. 47. 76. 56. 53. 88. 51. 43. 86. 85. 97.
      156. 140. 143. 199. 106. 112. 175. 54. 59. 116. 26. 27. 50. 67.
      65. 108. 71. 86. 125. 47. 47. 100. 49. 52. 93. 19. 20. 49. 36. 38.
      72. 20. 19. 47. 12. 15. 32. 12. 15. 27. 13. 15. 24. 8. 15. 24. 7.
      21. 50. 9. 13. 24. 7. 9. 19. 5. 14. 17. 20. 23. 37. 89. 82. 120.
      174. 92. 188. 49. 48. 51. 57. 54. 60. 64. 60. 72. 33. 34. 63. 52.
      56. 91. 92. 99. 150. 78. 88. 131. 122. 138. 196. 113. 125. 189.
      140. 158. 206. 146. 160. 202. 14. 20. 64. 58. 63. 102. 94. 95.
      153. 89. 91. 146. 31. 44. 88. 36. 43. 95. 38. 46. 86. 40. 47. 102.
      13. 18. 50. 10. 13. 27. 10. 13. 27. 10. 11. 23. 15. 30. 69. 7. 14.
      31. 7. 10. 18. 6. 8. 16. 11. 14. 22. 82. 75. 117. 175. 91. 188.
      44. 47. 48. 43. 44. 48. 25. 21. 29. 66. 65. 109. 71. 87. 137. 133.
      134. 187. 101. 122. 174. 133. 136. 197. 145. 159. 212. 155. 168.
      221. 181. 187. 234. 111. 113. 170. 61. 75. 124. 113. 124. 171.
      122. 128. 180. 77. 88. 140. 42. 53. 110. 61. 66. 123. 71. 89. 143.
      34. 52. 113. 15. 12. 51. 10. 15. 24. 6. 13. 20. 37. 46. 85. 5. 16.
      46. 3. 6. 14. 5. 8. 14. 7. 10. 18. 80. 72. 109. 151. 68. 160. 54.
      54. 55. 55. 56. 55. 38. 40. 48. 92. 102. 141. 101. 115. 166. 122.
      138. 183. 126. 138. 190. 156. 170. 218. 165. 172. 222. 166. 178.
      229. 170. 177. 228. 176. 177. 224. 146. 152. 200. 153. 160. 215.
      127. 139. 192. 122. 128. 187. 114. 127. 189. 101. 120. 178. 110.
      132. 184. 113. 124. 180. 49. 63. 116. 17. 22. 51. 9. 5. 33. 44.
      62. 105. 13. 29. 72. 6. 7. 17. 9. 10. 18. 7. 10. 18. 99. 84. 123.
      127. 39. 130. 43. 37. 44. 54. 52. 56. 45. 44. 55. 87. 100. 141.
      110. 130. 173. 136. 147. 197. 138. 146. 185. 148. 157. 192. 150.
      157. 189. 160. 167. 209. 154. 166. 214. 158. 162. 217. 144. 154.
      216. 137. 154. 215. 138. 156. 209. 119. 137. 200. 126. 135. 198.
      118. 137. 195. 122. 139. 200. 118. 134. 194. 108. 121. 181. 60.
      83. 131. 35. 58. 108. 51. 72. 121. 24. 45. 93. 5. 7. 16. 7. 11.
      16. 11. 16. 21. 90. 82. 120. 148. 64. 160. 47. 49. 50. 46. 43. 47.
      47. 48. 60. 91. 107. 148. 123. 129. 171. 98. 103. 134. 91. 96.
      126. 66. 72. 101. 58. 53. 87. 81. 79. 117. 80. 88. 128. 130. 137.
      188. 129. 142. 200. 141. 149. 210. 123. 140. 200. 116. 132. 195.
      111. 127. 189. 108. 127. 180. 80. 89. 130. 48. 49. 83. 51. 55. 84.
      68. 81. 118. 68. 91. 132. 56. 82. 132. 25. 54. 99. 6. 10. 21. 7.
      10. 18. 7. 9. 18. 90. 84. 125. 130. 48. 140. 46. 45. 49. 64. 62.
      65. 86. 91. 115. 112. 123. 162. 102. 107. 149. 117. 126. 169. 132.
      147. 190. 125. 145. 186. 116. 125. 169. 82. 98. 144. 65. 85. 131.
      78. 91. 135. 106. 122. 176. 115. 132. 195. 111. 129. 191. 105.
      117. 180. 60. 74. 126. 37. 52. 90. 52. 62. 108. 46. 54. 103. 47.
      58. 105. 45. 61. 102. 44. 51. 95. 45. 62. 104. 34. 55. 107. 11.
      13. 21. 6. 9. 18. 9. 9. 18. 85. 84. 112. 136. 54. 143. 48. 47. 47.
      45. 44. 50. 105. 105. 142. 102. 115. 153. 105. 108. 150. 117. 115.
      170. 145. 150. 212. 163. 169. 227. 177. 187. 230. 155. 162. 213.
      90. 110. 165. 81. 93. 151. 95. 115. 169. 114. 131. 192. 103. 122.
      184. 74. 87. 151. 44. 72. 122. 55. 70. 132. 75. 90. 153. 107. 120.
      179. 99. 115. 181. 83. 102. 170. 61. 83. 142. 45. 66. 113. 54. 69.
      119. 9. 14. 22. 14. 15. 19. 12. 14. 14. 97. 84. 119. 160. 76. 169.
      44. 49. 51. 40. 39. 43. 111. 117. 159. 104. 111. 156. 77. 85. 128.
      91. 105. 150. 66. 76. 128. 95. 97. 145. 94. 90. 131. 117. 133.
      185. 106. 124. 184. 82. 100. 160. 108. 126. 184. 147. 157. 213.
      128. 145. 202. 88. 106. 171. 65. 89. 146. 84. 102. 163. 86. 106.
      164. 123. 131. 192. 111. 130. 194. 76. 97. 165. 49. 76. 134. 41.
      61. 117. 48. 84. 133. 13. 8. 28. 12. 15. 23. 14. 22. 33. 95. 87.
      123. 165. 80. 174. 72. 71. 78. 51. 49. 55. 120. 132. 169. 114.
      130. 181. 77. 90. 139. 29. 35. 89. 54. 53. 92. 81. 79. 113. 55.
      49. 65. 37. 34. 63. 132. 141. 192. 95. 112. 177. 123. 138. 196.
      165. 177. 229. 138. 160. 212. 94. 118. 181. 92. 112. 173. 82. 93.
      153. 52. 54. 95. 19. 20. 40. 29. 28. 65. 43. 64. 108. 41. 59. 107.
      42. 66. 123. 60. 81. 136. 5. 8. 35. 8. 18. 26. 26. 40. 52. 99. 93.
      131. 118. 30. 135. 68. 55. 96. 47. 45. 54. 119. 135. 176. 122.
      141. 188. 122. 145. 197. 109. 124. 178. 105. 116. 174. 122. 135.
      191. 112. 119. 180. 89. 95. 152. 128. 141. 193. 109. 126. 187.
      120. 139. 207. 159. 157. 218. 143. 157. 216. 106. 132. 192. 118.
      125. 194. 102. 116. 168. 101. 115. 165. 97. 104. 144. 55. 65. 109.
      26. 42. 88. 35. 57. 105. 66. 99. 144. 60. 90. 145. 1. 14. 47. 17.
      20. 38. 71. 87. 109. 100. 91. 131. 144. 60. 164. 56. 52. 105. 129.
      118. 134. 114. 123. 172. 124. 137. 193. 144. 161. 216. 163. 171.
      225. 145. 158. 208. 148. 158. 211. 144. 144. 204. 164. 165. 207.
      239. 231. 247. 251. 244. 249. 248. 241. 247. 252. 241. 249. 253.
      242. 249. 247. 242. 239. 246. 245. 245. 206. 203. 222. 101. 101.
      147. 94. 102. 156. 67. 83. 142. 83. 94. 154. 77. 106. 166. 74. 99.
      163. 73. 90. 153. 33. 55. 99. 11. 21. 63. 82. 99. 124. 102. 95.
      135. 222. 140. 237. 58. 59. 109. 210. 194. 220. 119. 121. 154.
      134. 141. 186. 158. 158. 202. 202. 197. 228. 248. 244. 253. 250.
      243. 244. 250. 243. 242. 241. 230. 226. 240. 233. 231. 250. 245.
      241. 248. 243. 241. 249. 244. 244. 253. 246. 244. 250. 244. 238.
      215. 211. 206. 222. 224. 221. 224. 229. 228. 223. 222. 223. 223.
      225. 225. 201. 207. 218. 171. 178. 197. 108. 117. 154. 73. 85.
      142. 62. 68. 113. 36. 53. 106. 83. 103. 121. 102. 94. 134. 244.
      158. 249. 84. 77. 129. 110. 112. 131. 203. 197. 202. 209. 202.
      196. 246. 240. 237. 250. 244. 248. 221. 214. 206. 195. 184. 179.
      225. 219. 209. 234. 219. 211. 215. 205. 186. 229. 219. 200. 249.
      240. 210. 254. 249. 231. 248. 245. 219. 242. 233. 205. 218. 213.
      189. 222. 222. 208. 232. 231. 227. 208. 206. 208. 209. 211. 209.
      229. 227. 227. 221. 221. 223. 202. 204. 206. 122. 137. 139. 141.
      148. 174. 47. 65. 129. 78. 101. 125. 97. 90. 133. 248. 159. 251.
      167. 161. 176. 121. 114. 125. 211. 209. 213. 210. 194. 182. 239.
      228. 225. 252. 244. 247. 251. 243. 236. 230. 220. 204. 225. 213.
      185. 227. 218. 184. 248. 246. 212. 254. 252. 221. 250. 253. 220.
      250. 246. 241. 249. 248. 226. 239. 229. 199. 224. 217. 192. 229.
      223. 194. 219. 215. 191. 194. 191. 175. 206. 205. 201. 223. 222.
      221. 204. 205. 205. 169. 167. 169. 145. 156. 154. 136. 137. 169.
      68. 75. 137. 83. 105. 122. 99. 92. 132. 250. 162. 251. 188. 189.
      187. 101. 93. 99. 77. 66. 83. 212. 196. 183. 190. 179. 147. 219.
      206. 163. 241. 221. 187. 252. 236. 194. 233. 217. 175. 232. 215.
      176. 243. 226. 192. 245. 228. 195. 249. 235. 208. 252. 248. 235.
      248. 249. 222. 238. 227. 200. 225. 218. 193. 229. 220. 198. 215.
      204. 176. 210. 205. 172. 203. 206. 180. 218. 217. 194. 161. 161.
      151. 149. 156. 148. 149. 154. 155. 127. 142. 165. 72. 80. 110. 85.
      101. 118. 98. 92. 131. 251. 166. 251. 192. 196. 195. 178. 176.
      176. 80. 80. 104. 172. 160. 133. 234. 217. 170. 228. 212. 162.
      247. 225. 178. 247. 231. 189. 241. 223. 186. 239. 225. 181. 241.
      226. 183. 246. 230. 193. 245. 233. 201. 253. 252. 220. 249. 252.
      221. 233. 231. 200. 227. 225. 197. 213. 212. 182. 210. 209. 184.
      208. 208. 181. 199. 194. 170. 184. 187. 165. 188. 190. 169. 157.
      157. 137. 72. 81. 93. 190. 199. 213. 89. 107. 123. 83. 103. 117.
      96. 90. 130. 251. 167. 251. 197. 197. 197. 148. 153. 156. 78. 89.
      107. 202. 187. 170. 230. 214. 174. 251. 229. 178. 249. 228. 183.
      252. 233. 187. 253. 233. 192. 250. 234. 197. 254. 244. 205. 224.
      214. 177. 205. 198. 165. 208. 198. 164. 218. 207. 182. 148. 145.
      127. 184. 179. 158. 221. 221. 193. 219. 217. 189. 207. 203. 177.
      200. 199. 173. 188. 190. 160. 178. 175. 153. 135. 138. 119. 63.
      67. 90. 147. 155. 168. 87. 107. 121. 82. 103. 120. 96. 90. 129.
      251. 166. 251. 195. 198. 198. 190. 192. 192. 107. 112. 115. 237.
      218. 188. 220. 195. 156. 228. 207. 153. 253. 247. 196. 235. 222.
      176. 203. 189. 146. 184. 169. 136. 156. 141. 114. 196. 188. 148.
      216. 202. 166. 227. 222. 186. 165. 161. 133. 163. 167. 142. 141.
      144. 128. 155. 153. 129. 134. 132. 104. 148. 146. 122. 198. 194.
      169. 191. 190. 164. 188. 189. 165. 169. 173. 152. 63. 57. 70. 83.
      104. 122. 87. 105. 120. 79. 102. 118. 96. 92. 130. 251. 168. 251.
      199. 201. 201. 194. 193. 194. 147. 148. 151. 252. 236. 212. 212.
      196. 149. 171. 153. 115. 150. 132. 91. 173. 158. 102. 176. 157.
      114. 231. 217. 181. 193. 185. 139. 224. 210. 162. 231. 218. 175.
      227. 222. 192. 179. 178. 148. 182. 178. 150. 188. 191. 159. 160.
      162. 139. 148. 150. 131. 144. 149. 134. 158. 161. 139. 135. 138.
      113. 121. 124. 99. 189. 189. 163. 105. 111. 106. 88. 104. 120. 88.
      105. 121. 82. 103. 118. 94. 87. 126. 251. 171. 252. 199. 199. 199.
      190. 191. 191. 178. 190. 188. 137. 118. 110. 202. 188. 153. 240.
      226. 182. 229. 213. 170. 254. 250. 210. 253. 249. 210. 251. 238.
      195. 243. 225. 185. 225. 209. 167. 224. 220. 178. 211. 202. 175.
      191. 190. 160. 244. 237. 202. 243. 237. 207. 231. 226. 187. 226.
      223. 190. 222. 222. 191. 208. 210. 181. 190. 190. 170. 166. 168.
      149. 176. 177. 152. 183. 184. 171. 86. 110. 124. 75. 101. 113. 76.
      103. 117. 96. 87. 127. 251. 169. 251. 200. 200. 200. 194. 193.
      193. 192. 193. 193. 163. 154. 141. 210. 198. 153. 229. 214. 172.
      244. 224. 178. 221. 204. 158. 253. 246. 206. 245. 242. 205. 222.
      212. 168. 233. 223. 188. 221. 212. 183. 191. 187. 159. 231. 223.
      193. 248. 241. 206. 253. 243. 212. 244. 234. 207. 230. 222. 193.
      225. 218. 189. 200. 196. 168. 147. 146. 126. 138. 140. 119. 185.
      184. 163. 187. 182. 166. 83. 106. 119. 79. 102. 117. 79. 102. 114.
      93. 86. 124. 251. 169. 251. 198. 200. 200. 193. 193. 193. 184.
      189. 188. 218. 209. 197. 163. 151. 120. 119. 105. 88. 139. 120.
      101. 151. 126. 100. 194. 175. 140. 245. 240. 208. 225. 210. 173.
      189. 180. 146. 183. 183. 148. 203. 196. 170. 255. 250. 217. 249.
      247. 215. 235. 234. 203. 213. 205. 182. 138. 133. 114. 116. 119.
      109. 107. 114. 108. 117. 126. 123. 114. 125. 115. 116. 122. 111.
      98. 110. 108. 88. 104. 121. 83. 100. 118. 82. 98. 112. 99. 89.
